Language model created by QuickLM on Thu Jan  5 10:11:21 EST 2023
Copyright (c) 1996-2010 Carnegie Mellon University and Alexander I. Rudnicky

The model is in standard ARPA format, designed by Doug Paul while he was at MITRE.

The code that was used to produce this language model is available in Open Source.
Please visit http://www.speech.cs.cmu.edu/tools/ for more information

The (fixed) discount mass is 0.5. The backoffs are computed using the ratio method.
This model based on a corpus of 6294 sentences and 7464 words

\data\
ngram 1=7464
ngram 2=19590
ngram 3=18957

\1-grams:
-4.5241 1 -0.3008
-4.8251 10 -0.2990
-4.5241 10:00 -0.2905
-4.5241 11 -0.2920
-4.5241 12 -0.2995
-4.8251 125 -0.2967
-4.8251 14 -0.2990
-4.5241 15 -0.2989
-4.3480 16 -0.2989
-4.8251 17 -0.2990
-4.5241 18 -0.3010
-4.3480 19 -0.3003
-4.2231 2 -0.3008
-4.3480 20 -0.3008
-4.0470 21 -0.2988
-4.8251 23 -0.3010
-4.5241 26 -0.3010
-4.3480 27 -0.2988
-4.5241 28 -0.2993
-4.5241 29 -0.3010
-4.8251 2:45 -0.2920
-4.8251 2A -0.3010
-4.5241 30 -0.2989
-4.5241 32 -0.3009
-4.5241 357 -0.3010
-4.8251 38 -0.3010
-4.8251 39 -0.3010
-4.8251 3:00 -0.2920
-4.8251 4 -0.2990
-4.8251 41 -0.3010
-4.5241 42 -0.3010
-4.8251 45 -0.2967
-4.8251 4:45 -0.2920
-4.8251 4TH -0.3010
-4.8251 50 -0.3010
-4.8251 51 -0.3010
-4.8251 52 -0.3010
-4.8251 5:00 -0.2920
-4.2231 7 -0.2480
-4.8251 76 -0.3009
-4.8251 8 -0.2920
-4.8251 8:00 -0.2920
-4.8251 8:30 -0.2920
-4.5241 9:00 -0.2919
-4.8251 9MM -0.2989
-1.0262 </s> -0.3010
-1.0262 <s> -0.1852
-3.5241 A -0.2437
-4.8251 A3TSO -0.2581
-4.5241 AANG -0.3009
-4.8251 AANIHIN -0.2581
-4.8251 AAWAY -0.2581
-4.3480 AB -0.2481
-4.8251 ABAG -0.2920
-4.3480 ABAGA -0.2481
-4.8251 ABAGAHON -0.2581
-4.8251 ABAKA -0.2581
-4.8251 ABAKADA -0.2581
-4.8251 ABALO -0.2967
-4.8251 ABANA -0.2581
-4.8251 ABANDONA -0.2581
-4.5241 ABANG -0.2581
-4.8251 ABANGAN -0.2581
-4.8251 ABANO -0.2581
-4.8251 ABANTE -0.2581
-4.5241 ABE -0.3007
-4.8251 ABENTURA -0.2581
-4.2231 ABI -0.2571
-4.8251 ABILIDAD -0.2581
-4.8251 ABIS -0.2581
-4.8251 ABISO -0.2581
-4.8251 ABLIHAN -0.3006
-4.0470 ABLIHI -0.2962
-4.8251 ABO -0.2581
-4.5241 ABOG -0.2581
-4.3480 ABOGADO -0.2471
-4.8251 ABOGADOGIHADLOK -0.2995
-4.8251 ABOHAN -0.3010
-4.8251 ABOHON -0.2581
-4.8251 ABONO -0.2581
-4.8251 ABORSYON -0.2581
-3.9220 ABOT -0.2461
-4.8251 ABRI -0.2962
-4.5241 ABRIL -0.2581
-4.8251 ABROD -0.2581
-4.8251 ABTANAN -0.2581
-4.1261 ABTIK -0.2524
-4.8251 ABUG -0.2581
-4.8251 ABUHON -0.2581
-4.5241 ABUNDA -0.2578
-4.5241 ABUSO -0.2481
-4.8251 ABUT -0.3010
-4.3480 ABUTAN -0.2911
-4.8251 ACCESS -0.2581
-4.8251 ACCOMPANY -0.2581
-4.8251 ACCOUNTING -0.3010
-4.8251 ACT -0.2967
-4.2231 AD -0.2533
-4.8251 ADDRESS -0.2581
-4.8251 ADIK -0.2581
-4.8251 ADJUST -0.2581
-3.0848 ADLAW -0.2279
-4.3480 ADLAWA -0.2578
-4.8251 ADLAWAN -0.2581
-4.5241 ADLAWNG -0.3010
-4.8251 ADLAWON -0.2581
-4.8251 ADMINISTRASYON -0.2581
-4.8251 ADMIRE -0.2581
-4.8251 ADMIT -0.2581
-4.3480 ADOBO -0.2581
-4.8251 ADONIS -0.3010
-4.8251 ADOPT -0.2581
-4.8251 ADORNO -0.2581
-4.8251 ADRES -0.2581
-4.3480 ADTO -0.2905
-4.8251 ADTOANAN -0.2581
-4.5241 ADTOON -0.2579
-4.8251 ADTUAN -0.2581
-3.0927 ADUNA -0.2443
-3.5947 ADUNAY -0.2575
-4.8251 ADV -0.2581
-4.8251 ADVANCE -0.2581
-4.8251 ADVERTISE -0.2581
-4.8251 ADVERTISING -0.2581
-4.8251 ADVISE -0.2581
-4.8251 AFRAID -0.2581
-4.8251 AFRICA -0.2581
-4.8251 AFRICAN -0.3010
-4.8251 AFRITADA -0.2581
-4.1261 AG -0.2531
-4.8251 AGA -0.3001
-4.8251 AGAD -0.2581
-4.8251 AGAIN -0.2581
-4.8251 AGALON -0.2581
-4.5241 AGAS -0.2481
-4.8251 AGAW -0.2581
-4.8251 AGAWON -0.3008
-4.5241 AGBAY -0.2571
-4.8251 AGDAO -0.2581
-4.8251 AGENCY -0.2581
-4.8251 AGENDA -0.2581
-4.8251 AGENT -0.2581
-4.8251 AGER -0.3010
-4.3480 AGI -0.2581
-4.3480 AGIANAN -0.2533
-4.8251 AGIG -0.3010
-4.5241 AGIGISING -0.2557
-4.8251 AGION -0.2581
-4.8251 AGIPO -0.2581
-4.8251 AGIW -0.2581
-4.8251 AGNI -0.2581
-4.5241 AGOSTO -0.2581
-4.3480 AGOT -0.3009
-4.8251 AGOY -0.2581
-4.8251 AGREE -0.2581
-4.8251 AGREEMENT -0.2581
-4.8251 AGRESIBO -0.2581
-4.8251 AGRIKULTURA -0.2581
-4.8251 AGSA -0.2581
-4.8251 AGTANG -0.2581
-4.8251 AGUSTO -0.2581
-4.8251 AGWANTAHON -0.2581
-4.8251 AHAK -0.2581
-4.8251 AHAS -0.3010
-4.8251 AHAY -0.2581
-4.8251 AHENSYA -0.2581
-4.8251 AHENTE -0.2581
-4.8251 AHOS -0.2581
-4.8251 AID -0.2581
-4.8251 AIDS -0.2581
-4.5241 AIR -0.2581
-4.8251 AIRPLANE -0.2581
-3.3780 AIRPORT -0.2579
-4.8251 AIZA -0.3010
-4.8251 AKA -0.3010
-4.8251 AKADEMIKO -0.2581
-2.9501 AKO -0.2305
-4.5241 AKOA -0.2581
-4.8251 AKOG -0.3010
-4.8251 AKOHON -0.2581
-3.1719 AKONG -0.2974
-4.8251 AKOY -0.3010
-4.8251 AKRHO -0.2962
-4.8251 AKSENTO -0.2581
-4.8251 AKSESORI -0.2581
-4.5241 AKSIDENTE -0.2581
-4.8251 AKSIDENTING -0.3010
-4.8251 AKSYON -0.2581
-4.8251 AKTIBISTA -0.2581
-4.8251 AKTIBO -0.2581
-4.8251 AKTO -0.2581
-4.8251 AKUP -0.2581
-4.8251 AKWARYUM -0.2581
-4.3480 ALA -0.3009
-4.5241 ALAB -0.2581
-4.8251 ALAGIAN -0.2581
-4.8251 ALAHAS -0.2581
-4.5241 ALAK -0.2581
-4.8251 ALAM -0.3007
-4.8251 ALAMBRE -0.3010
-3.6790 ALANG -0.2475
-4.3480 ALARMA -0.2965
-3.5241 ALAS -0.2578
-4.5241 ALAUT -0.3010
-4.5241 ALBOTRA -0.2967
-4.8251 ALBUM -0.2581
-4.8251 ALCOY -0.3009
-4.5241 ALEMAN -0.2581
-4.8251 ALFREDO -0.3010
-4.8251 ALI -0.2581
-4.5241 ALIAS -0.3010
-4.8251 ALIBANG -0.3009
-4.8251 ALIBANGBANG -0.2581
-4.8251 ALIBWAG -0.2581
-4.8251 ALIBYO -0.2581
-4.5241 ALILI -0.2989
-4.8251 ALIMANGO -0.2581
-4.8251 ALIMPULO -0.2581
-4.8251 ALIMPULOS -0.2581
-4.3480 ALIMUOT -0.2578
-4.8251 ALINDAHAW -0.2581
-4.8251 ALINDUM -0.2581
-4.8251 ALINGASA -0.2581
-4.8251 ALINGAWNGAW -0.2581
-4.5241 ALIRONG -0.2481
-4.8251 ALISDAN -0.2581
-4.8251 ALISTO -0.2581
-4.8251 ALIWAROS -0.2581
-4.8251 ALKOBA -0.2581
-4.8251 ALKOHOL -0.2581
-4.8251 ALLAN -0.3010
-4.8251 ALLOTMENT -0.2967
-4.8251 ALMS -0.2581
-4.8251 ALMUHADON -0.2581
-4.8251 ALNGOG -0.2920
-4.8251 ALOM -0.2581
-4.8251 ALPOMBRA -0.2581
-4.8251 ALTAR -0.2581
-4.8251 ALTERNATIBO -0.2581
-4.8251 ALUMINUM -0.2581
-4.8251 ALVIN -0.3010
-4.8251 ALYANSA -0.2581
-4.5241 ALYAS -0.3005
-4.8251 AM -0.2581
-4.8251 AMADOR -0.3010
-4.0470 AMAHAN -0.2464
-4.8251 AMAHANG -0.2998
-4.8251 AMAHON -0.2581
-4.8251 AMAKAN -0.2581
-4.8251 AMAW -0.2581
-4.8251 AMBAHADOR -0.2581
-4.8251 AMBAK -0.2581
-4.5241 AMBOT -0.2581
-4.5241 AMBULANSIYA -0.2581
-4.8251 AMBUSANAN -0.2581
-4.5241 AMBUSH -0.2581
-4.8251 AMERICAN -0.2581
-4.5241 AMERIKA -0.2581
-4.8251 AMERIKANA -0.2581
-4.5241 AMERIKANO -0.2581
-4.8251 AMGO -0.2581
-4.3480 AMIGA -0.2581
-4.1261 AMIGO -0.2580
-4.8251 AMIGOS -0.3010
-4.8251 AMIHAN -0.2581
-4.8251 AMIHANAN -0.2581
-4.8251 AMIMISLON -0.2581
-4.8251 AMIN -0.2962
-4.5241 AMIRKANO -0.2581
-4.2231 AMO -0.2533
-3.9800 AMON -0.2519
-3.5698 AMONG -0.2998
-4.3480 AMOT -0.2576
-4.3480 AMPING -0.2580
-4.5241 AMPINGAN -0.2579
-4.8251 AMPO -0.2581
-4.8251 AMULET -0.2581
-3.2340 AN -0.2306
-4.1261 ANA -0.2579
-3.8709 ANAA -0.2460
-4.2231 ANAAY -0.3004
-4.5241 ANAD -0.2564
-3.4634 ANAK -0.2421
-4.8251 ANALISA -0.2581
-4.8251 ANALISTA -0.2581
-4.0470 ANAN -0.2556
-4.5241 ANANG -0.3010
-4.5241 ANAY -0.2533
-4.8251 ANCESTORS -0.2581
-4.8251 ANCY -0.3010
-4.5241 AND -0.3010
-4.3480 ANDAM -0.2581
-4.8251 ANDAMON -0.2581
-4.8251 ANDANA -0.2920
-4.8251 ANDRES -0.2967
-4.8251 ANEMYA -0.2581
-1.9594 ANG -0.2170
-4.5241 ANGAN -0.2528
-4.8251 ANGAY -0.2581
-4.8251 ANGAYAN -0.2581
-4.8251 ANGELITA -0.2967
-4.8251 ANGGA -0.2581
-4.5241 ANGGULO -0.2581
-4.8251 ANGHEL -0.2581
-4.8251 ANGHIT -0.2581
-4.3480 ANGKAS -0.2998
-4.8251 ANGKAT -0.2581
-4.5241 ANGKON -0.2581
-4.8251 ANGLIT -0.2967
-4.8251 ANGRY -0.2581
-4.8251 ANGSO -0.2962
-4.8251 ANGTOD -0.2581
-4.5241 ANHA -0.2575
-4.3480 ANHI -0.3004
-4.5241 ANI -0.2481
-4.8251 ANIA -0.2581
-4.8251 ANIBERSARYO -0.2581
-4.8251 ANIBIRSARYU -0.2581
-4.8251 ANIHON -0.2581
-4.5241 ANIHUN -0.2581
-4.8251 ANIMAL -0.2581
-4.8251 ANING -0.2581
-4.8251 ANINIKAD -0.3010
-4.5241 ANINO -0.2571
-4.8251 ANKLE -0.2581
-4.8251 ANO -0.2962
-4.8251 ANON -0.2581
-4.8251 ANONG -0.3010
-4.8251 ANOY -0.3010
-4.8251 ANTARCTIC -0.2581
-4.8251 ANTENNA -0.2581
-4.8251 ANTEPARA -0.2581
-4.8251 ANTEYOHOS -0.2581
-4.8251 ANTHEM -0.2581
-4.8251 ANTHONY -0.3010
-4.8251 ANTIKRISTO -0.2581
-4.5241 ANTOS -0.2481
-4.8251 ANTUS -0.3010
-4.3480 ANUGON -0.2477
-4.8251 ANUOS -0.2581
-4.8251 ANYAG -0.2581
-4.8251 ANYIL -0.2581
-3.9800 ANYOS -0.2897
-4.8251 ANYWAY -0.2962
-4.5241 AP -0.2581
-4.8251 APA -0.2581
-4.8251 APALAN -0.2581
-3.0617 APAN -0.2368
-4.8251 APARADOR -0.2581
-4.8251 APARATO -0.2581
-4.8251 APARTMENT -0.2581
-4.8251 APDU -0.2581
-4.8251 APEKTO -0.2581
-4.8251 APELAR -0.2581
-4.8251 APENDIKS -0.2581
-4.5241 APIL -0.2581
-4.8251 APILON -0.2920
-4.5241 APING -0.2557
-4.8251 APLAYAN -0.2581
-4.8251 APLIKANTE -0.2581
-4.8251 APLIKASYON -0.2581
-4.5241 APO -0.2481
-4.5241 APOD -0.2581
-4.3480 APOHAN -0.2533
-4.8251 APOLOGY -0.2581
-4.8251 APOSTOL -0.2581
-4.8251 APPETITE -0.2581
-4.8251 APPLY -0.2581
-4.8251 APPOINTMENT -0.2581
-4.8251 APUGON -0.2581
-4.8251 ARABO -0.2581
-4.8251 ARABYANO -0.2581
-4.3480 ARANG -0.2581
-4.2231 ARAW -0.2995
-4.8251 ARCILLA -0.2962
-4.5241 AREA -0.2920
-4.8251 ARESTO -0.2581
-4.8251 ARGAO -0.3009
-4.8251 ARGAW -0.3005
-4.8251 ARGUMENTO -0.2581
-4.5241 ARI -0.2581
-4.8251 ARINOLA -0.2581
-4.8251 ARITES -0.2581
-4.8251 ARITMATIKA -0.2581
-4.8251 ARJUN -0.2581
-4.8251 ARKA -0.3010
-4.8251 ARKANGHEL -0.2581
-4.8251 ARKITEKTO -0.2581
-4.8251 ARKITIKTURA -0.2581
-4.3480 ARMADO -0.2528
-4.3480 ARMAS -0.2532
-4.8251 ARMPIT -0.3010
-4.8251 AROGANTE -0.2581
-3.3480 ARON -0.2844
-4.5241 ARREST -0.2579
-4.5241 ARRIVAL -0.2920
-4.8251 ARS -0.3010
-3.4449 ARSENIO -0.2342
-4.8251 ARSOBISPO -0.2581
-4.8251 ARTAASTANG -0.3010
-4.5241 ARTE -0.2581
-4.8251 ARTIKULO -0.2581
-4.8251 ARTISTA -0.2581
-4.5241 ARTISTANG -0.3010
-4.8251 ARTISTIC -0.2581
-4.8251 ARTISTOKRATA -0.2581
-4.3480 AS -0.2481
-3.5029 ASA -0.2372
-4.0470 ASAWA -0.2547
-4.8251 ASAYNMENT -0.2581
-4.8251 ASERO -0.2581
-4.8251 ASGAD -0.2581
-4.8251 ASHAMED -0.2581
-4.8251 ASIDO -0.2581
-4.8251 ASIKASO -0.2581
-4.2231 ASIN -0.2581
-4.8251 ASK -0.2581
-4.8251 ASO -0.2581
-4.8251 ASON -0.2581
-4.8251 ASOY -0.2581
-4.8251 ASPALTO -0.2581
-4.8251 ASPARAGUS -0.2581
-4.8251 ASPERA -0.3009
-4.8251 ASPETO -0.2581
-4.8251 ASSAULT -0.2581
-4.8251 ASSET -0.2581
-4.8251 ASSIST -0.2581
-4.8251 ASSURE -0.2581
-4.8251 ASTA -0.2581
-4.8251 ASTHMA -0.2581
-4.8251 ASU -0.2581
-4.8251 ASUGI -0.2581
-4.8251 ASUKAL -0.3010
-4.2231 ASUKAR -0.2581
-4.8251 ASUL -0.2581
-4.5241 ASUMIR -0.2994
-4.8251 ASUPRE -0.2581
-4.8251 ASYA -0.2581
-4.8251 ASYANHONON -0.2581
-4.8251 ASYANO -0.2581
-4.5241 ASYENDA -0.2958
-3.9800 AT -0.2567
-4.8251 ATABAY -0.2581
-4.8251 ATAKE -0.2581
-4.8251 ATAN -0.2581
-4.8251 ATAY -0.2581
-4.1261 ATBANG -0.2481
-4.8251 ATENSYON -0.2581
-4.8251 ATHLETE -0.2581
-4.8251 ATIK -0.2581
-4.3480 ATIMAN -0.2581
-4.8251 ATIMANON -0.2581
-4.8251 ATIS -0.2581
-4.8251 ATLETA -0.2581
-4.8251 ATLETIKO -0.2581
-4.8251 ATNGAL -0.2581
-3.9800 ATO -0.2575
-4.1261 ATOL -0.2920
-4.8251 ATOMO -0.2581
-4.5241 ATON -0.2581
-3.7837 ATONG -0.2991
-4.8251 ATOP -0.2581
-4.8251 ATRAKSIYON -0.3009
-4.8251 ATRAS -0.2581
-4.8251 ATSAL -0.2581
-4.8251 ATSARA -0.2581
-4.8251 ATTACK -0.2581
-4.8251 ATTEMPT -0.2581
-4.8251 ATTENDANT -0.2581
-4.5241 ATTY -0.3010
-4.5241 ATUBANGAN -0.2533
-4.8251 ATUBANGON -0.2581
-4.8251 ATULI -0.2581
-4.5241 ATUP -0.2581
-4.8251 AURORA -0.2581
-4.8251 AVE -0.2581
-4.8251 AVENTURADO -0.3010
-4.8251 AVERAGE -0.2581
-4.8251 AVILA -0.2967
-4.8251 AVIS -0.2581
-4.8251 AVISO -0.2581
-4.8251 AVOID -0.2581
-3.8709 AW -0.2525
-4.2231 AWA -0.2581
-4.8251 AWAG -0.3010
-4.5241 AWAHI -0.2533
-4.8251 AWANG -0.3008
-4.8251 AWARENESS -0.2581
-4.8251 AWAS -0.2995
-4.8251 AWAT -0.2581
-4.2231 AWAY -0.2575
-4.5241 AWIT -0.2581
-4.8251 AWKWARD -0.2581
-4.1261 AWON -0.2533
-4.5241 AWTO -0.2581
-4.8251 AWTOMATIKO -0.2581
-4.8251 AWTORIDAD -0.2581
-3.4272 AY -0.2527
-4.8251 AYAG -0.2581
-3.5241 AYAW -0.2531
-4.8251 AYAWG -0.3010
-4.8251 AYAY -0.2581
-4.8251 AYHA -0.2581
-3.9800 AYO -0.2413
-4.8251 AYOS -0.2581
-4.8251 AYROPLANO -0.2581
-4.8251 AYS -0.2581
-4.8251 AYUHON -0.2581
-2.7569 BA -0.2229
-4.0470 BABA -0.2581
-4.8251 BABAAN -0.2581
-4.5241 BABAE -0.2578
-4.8251 BABAG -0.2581
-4.8251 BABAGAN -0.2581
-4.8251 BABAW -0.2581
-4.5241 BABAY -0.2581
-3.5464 BABAYE -0.2430
-4.5241 BABAYI -0.3008
-4.0470 BABOY -0.2581
-4.8251 BACALSO -0.3010
-4.8251 BACHELOR -0.2581
-4.8251 BACKGROUND -0.2581
-4.8251 BACKSEAT -0.2920
-4.5241 BACOLOD -0.3010
-4.8251 BACON -0.2967
-4.8251 BAD -0.2581
-4.8251 BADAYOS -0.2962
-4.8251 BADBAD -0.2581
-4.8251 BADLONG -0.2581
-4.8251 BADLONGON -0.2581
-4.8251 BADYET -0.2581
-3.5241 BAG -0.2447
-4.3480 BAGA -0.2581
-4.8251 BAGAHAN -0.2581
-4.8251 BAGAHE -0.2581
-4.8251 BAGAKAY -0.2581
-4.8251 BAGAT -0.2581
-4.3480 BAGAY -0.2556
-4.8251 BAGIS -0.2581
-4.8251 BAGITO -0.2581
-4.8251 BAGKUS -0.3010
-4.8251 BAGO -0.2581
-4.5241 BAGOL -0.2533
-4.8251 BAGOLBAGOL -0.2581
-4.3480 BAGON -0.2581
-4.8251 BAGONG -0.3009
-4.8251 BAGONYA -0.2581
-4.5241 BAGSAK -0.2579
-4.8251 BAGTAK -0.2581
-4.8251 BAGTING -0.2581
-4.8251 BAGTINGON -0.2581
-4.8251 BAGUIO -0.2581
-4.8251 BAGUL -0.3010
-4.8251 BAGUTBUT -0.2581
-4.8251 BAGYO -0.2581
-4.8251 BAGYUHON -0.2581
-4.5241 BAHA -0.2576
-4.3480 BAHALA -0.2564
-4.8251 BAHANDI -0.2581
-4.8251 BAHAW -0.2581
-4.8251 BAHAY -0.3010
-4.8251 BAHIHI -0.2581
-3.4272 BAHIN -0.2419
-4.8251 BAHINAN -0.2581
-4.8251 BAHINON -0.2581
-4.1261 BAHO -0.2531
-4.8251 BAHONG -0.3010
-4.8251 BAIL -0.2581
-4.8251 BAIWAS -0.2581
-4.1261 BAKA -0.2481
-4.8251 BAKAK -0.2581
-4.5241 BAKAKON -0.2581
-4.8251 BAKANTE -0.2581
-4.5241 BAKASYON -0.2581
-4.8251 BAKEL -0.2581
-4.8251 BAKERY -0.2967
-4.5241 BAKHAW -0.2533
-4.8251 BAKHO -0.2581
-4.8251 BAKI -0.2581
-4.8251 BAKIKAW -0.2581
-4.8251 BAKIT -0.3009
-4.8251 BAKLI -0.2581
-4.8251 BAKOD -0.2581
-4.8251 BAKSAN -0.2581
-4.8251 BAKUKANG -0.2581
-4.8251 BAKUNA -0.2581
-4.8251 BAKUNAHAN -0.2581
-4.5241 BAKUS -0.2581
-4.8251 BAKWION -0.2581
-3.6790 BALA -0.2479
-4.8251 BALAAN -0.2581
-4.8251 BALAANON -0.2581
-4.8251 BALABAG -0.2581
-4.8251 BALAKANG -0.2581
-4.8251 BALAMBAN -0.2581
-4.5241 BALANGAY -0.2581
-4.8251 BALANSE -0.2581
-4.8251 BALANTIYONG -0.2581
-4.8251 BALAOD -0.2581
-4.8251 BALAODNON -0.2581
-4.8251 BALAS -0.2581
-4.8251 BALAT -0.2962
-4.8251 BALAUD -0.2581
-4.8251 BALAURANAN -0.2581
-3.3780 BALAY -0.2408
-4.8251 BALBACOA -0.2581
-4.8251 BALDADO -0.2581
-4.8251 BALDE -0.2581
-4.8251 BALDI -0.2581
-4.8251 BALE -0.2995
-4.5241 BALI -0.3005
-4.8251 BALIGUAT -0.2967
-4.8251 BALIGYA -0.2581
-4.8251 BALIGYAANAN -0.2581
-4.5241 BALIHA -0.2528
-4.3480 BALIK -0.2577
-4.8251 BALIKA -0.3007
-4.8251 BALIKBALIK -0.2581
-4.8251 BALIKI -0.2581
-4.8251 BALIKO -0.2581
-4.8251 BALIKTAD -0.2581
-4.3480 BALILI -0.2579
-4.8251 BALILIHAN -0.2581
-4.8251 BALINGBING -0.2581
-4.0470 BALITA -0.2557
-4.8251 BALITANG -0.3010
-4.8251 BALITI -0.2581
-4.8251 BALKON -0.2581
-4.8251 BALKONAHE -0.2581
-4.8251 BALO -0.2581
-4.8251 BALOR -0.2995
-4.8251 BALSAMO -0.2581
-4.8251 BALUD -0.2581
-4.8251 BALUS -0.2581
-4.8251 BALUWARTE -0.2581
-4.8251 BALYENA -0.2581
-4.0470 BANA -0.2509
-4.8251 BANABANA -0.2581
-4.8251 BANAGAN -0.2581
-4.8251 BANAGBANAG -0.2581
-4.8251 BANAY -0.2581
-4.8251 BANAYNG -0.3010
-4.8251 BANDA -0.2581
-4.8251 BANDERA -0.2581
-4.8251 BANDILA -0.2581
-4.8251 BANDYO -0.2581
-3.6210 BANG -0.2562
-4.8251 BANGAS -0.2581
-4.8251 BANGAW -0.2581
-4.8251 BANGGA -0.2581
-4.8251 BANGGAAN -0.2581
-4.3480 BANGGIRA -0.2987
-4.3480 BANGGITIN -0.2962
-4.8251 BANGKAW -0.2581
-4.8251 BANGKETE -0.2581
-4.8251 BANGKO -0.2581
-4.8251 BANGOY -0.3009
-4.8251 BANGTUD -0.2920
-4.3480 BANGUS -0.2579
-4.8251 BANHAAN -0.2581
-4.8251 BANI -0.2581
-4.8251 BANIG -0.2581
-4.8251 BANIKANHON -0.2581
-4.8251 BANILAD -0.2581
-4.8251 BANK -0.2581
-4.8251 BANKRUPT -0.2581
-4.8251 BANLAG -0.2581
-4.5241 BANOG -0.2533
-4.8251 BANOS -0.3009
-4.8251 BANSIKOL -0.3010
-4.8251 BANSILAG -0.2581
-4.8251 BANSIWAG -0.2581
-4.8251 BANTAAW -0.2967
-4.8251 BANTANG -0.2581
-4.5241 BANTAY -0.2580
-4.5241 BANTAYAN -0.2581
-4.5241 BANTAYANAN -0.2581
-4.8251 BANTING -0.2581
-4.8251 BANTOG -0.2967
-4.8251 BANTOGAN -0.2581
-4.8251 BANTUG -0.3010
-4.8251 BANTUGAN -0.3008
-4.8251 BANYAGA -0.2581
-4.8251 BANYO -0.2581
-4.8251 BAO -0.2581
-4.8251 BAPOR -0.2581
-4.8251 BAR -0.2581
-4.8251 BARA -0.2581
-4.8251 BARADO -0.2962
-4.5241 BARAHA -0.2581
-4.8251 BARANDILYAS -0.2581
-4.8251 BARANG -0.2581
-3.4449 BARANGAY -0.2576
-4.8251 BARATILYO -0.2581
-4.2231 BARATO -0.2564
-4.8251 BARATONG -0.3010
-4.8251 BARBARIAN -0.2581
-4.8251 BARBAS -0.2581
-4.8251 BARBER -0.2581
-4.8251 BARCELITO -0.3010
-4.8251 BARGAIN -0.2581
-4.8251 BARGAMENTO -0.2989
-4.8251 BARIL -0.2581
-4.8251 BARILIS -0.2581
-4.8251 BARILON -0.2581
-4.8251 BARITONO -0.2581
-4.8251 BARKADA -0.3008
-4.8251 BARKO -0.2581
-4.8251 BARONG -0.3010
-4.8251 BAROTO -0.2581
-4.8251 BARUG -0.3009
-4.8251 BARUGANAN -0.3001
-4.8251 BARYO -0.2581
-4.8251 BAS -0.2989
-4.8251 BASA -0.2581
-4.8251 BASABASA -0.2581
-4.8251 BASAG -0.3009
-4.8251 BASAHA -0.2581
-4.8251 BASAHON -0.2581
-4.8251 BASAK -0.3010
-4.8251 BASAKAN -0.2581
-4.3480 BASE -0.2481
-4.8251 BASEBALL -0.2581
-4.8251 BASEMENT -0.2581
-4.8251 BASI -0.2581
-4.8251 BASIHAN -0.2581
-4.8251 BASIHANAN -0.2581
-4.8251 BASILIKA -0.2581
-4.1261 BASIN -0.2535
-4.8251 BASKETBALL -0.2581
-4.8251 BASKETBOLAN -0.2581
-4.8251 BASKETBOLISTA -0.2581
-4.8251 BASKITBOL -0.2581
-4.5241 BASO -0.2581
-4.8251 BASOL -0.2581
-4.2231 BASTA -0.3001
-4.8251 BASTARD -0.2581
-4.8251 BASTES -0.3008
-4.5241 BASTOS -0.2581
-4.5241 BASURA -0.2581
-4.8251 BAT -0.2962
-3.5698 BATA -0.2347
-4.8251 BATAA -0.3007
-4.8251 BATAK -0.2581
-4.8251 BATAKA -0.2581
-4.8251 BATAKAN -0.2581
-4.8251 BATALYON -0.2581
-4.3480 BATAN -0.3008
-4.3480 BATANG -0.3009
-4.8251 BATANON -0.2581
-4.8251 BATAON -0.2581
-4.8251 BATAS -0.2581
-4.8251 BATASAN -0.2581
-4.8251 BATCHOY -0.2581
-4.8251 BATERYA -0.2581
-4.8251 BATHROOM -0.2581
-4.8251 BATI -0.2581
-4.8251 BATID -0.2920
-4.8251 BATIIS -0.2581
-4.8251 BATIKULON -0.2581
-4.8251 BATINGGOL -0.2581
-4.2231 BATO -0.2526
-4.1261 BATOK -0.2477
-4.8251 BATONG -0.3010
-4.8251 BATONIS -0.2581
-4.8251 BATOON -0.3010
-4.8251 BATSILYERATO -0.2581
-4.8251 BATTLE -0.2581
-4.8251 BATUTA -0.2581
-4.8251 BAUL -0.2581
-4.8251 BAWION -0.2581
-4.8251 BAWNDERI -0.2581
-4.5241 BAWOT -0.2581
-4.8251 BAWUNO -0.2581
-3.1530 BAY -0.3002
-4.5241 BAYABAS -0.2579
-4.5241 BAYAD -0.2578
-4.3480 BAYAN -0.2581
-4.8251 BAYANAN -0.2581
-4.8251 BAYANI -0.2581
-4.5241 BAYANING -0.3010
-4.8251 BAYARI -0.2581
-4.3480 BAYAW -0.2533
-4.8251 BAYAY -0.2581
-4.5241 BAYBAY -0.2481
-4.5241 BAYBAYON -0.2580
-4.1261 BAYHANA -0.2530
-4.5241 BAYLE -0.2581
-4.5241 BAYLEHANAN -0.2581
-4.8251 BAYLO -0.2581
-4.5241 BAYNTE -0.2580
-4.8251 BAYNTISINGKO -0.3010
-4.8251 BAYOLET -0.2581
-4.5241 BAYOT -0.2558
-4.8251 BAYRAN -0.2581
-4.5241 BAYRANAN -0.2581
-4.8251 BAYRONON -0.2581
-4.8251 BEACH -0.2581
-4.8251 BEAN -0.2581
-4.8251 BEAUTIFUL -0.2581
-4.8251 BEBE -0.3010
-4.8251 BED -0.2581
-4.8251 BEDEW -0.2581
-4.8251 BEDROOM -0.2581
-4.8251 BEER -0.2581
-4.8251 BEHIND -0.2581
-4.8251 BEISBOL -0.2581
-4.8251 BELBEL -0.2581
-4.8251 BELEN -0.2581
-4.3480 BELOS -0.2962
-4.8251 BEN -0.3010
-4.8251 BENDAHE -0.2581
-4.8251 BENDISYON -0.2581
-4.8251 BENIYAAN -0.2581
-4.8251 BENTAHA -0.2581
-4.8251 BENTANA -0.2581
-4.8251 BENTILADOR -0.2581
-4.8251 BERDE -0.2581
-4.8251 BERETA -0.2581
-4.8251 BERNING -0.3010
-4.5241 BERTO -0.3007
-4.3480 BESES -0.2474
-4.8251 BEST -0.2967
-4.8251 BETA -0.2581
-4.8251 BETANYA -0.2581
-4.8251 BETERANO -0.2581
-4.8251 BETERINARYO -0.2581
-4.8251 BETSY -0.3010
-4.8251 BEVERAGE -0.2581
-4.8251 BEYER -0.2967
-4.8251 BIBIG -0.2962
-4.8251 BIBIGYAN -0.3010
-4.8251 BIBINGKA -0.2581
-4.8251 BIBLIOGRAPIYA -0.2581
-4.5241 BIBLIYA -0.2581
-4.8251 BIBO -0.2581
-4.8251 BIDA -0.3010
-4.8251 BIGAON -0.2581
-4.8251 BIGOTE -0.2581
-4.8251 BIHAG -0.2581
-4.8251 BIKARBONATO -0.2581
-4.8251 BIKO -0.2581
-3.1349 BIKTIMA -0.2323
-4.8251 BILANGGOAN -0.2581
-4.8251 BILAS -0.2581
-4.8251 BILAT -0.2581
-4.8251 BILDING -0.2581
-4.8251 BILDO -0.2581
-4.8251 BILDONG -0.3008
-4.8251 BILI -0.2581
-4.8251 BILILHON -0.2581
-4.8251 BILIN -0.2581
-4.8251 BILYARAN -0.2581
-4.8251 BILYON -0.2581
-4.8251 BINABA -0.2581
-4.8251 BINABAYE -0.3010
-4.8251 BINALAYE -0.2581
-4.8251 BINANDOL -0.2967
-4.8251 BINATA -0.2581
-4.8251 BINDITA -0.2581
-4.8251 BINGO -0.3010
-4.8251 BINHI -0.2581
-4.8251 BINHOD -0.2581
-4.8251 BINIGNIT -0.2581
-4.8251 BINIGYAN -0.3009
-4.2231 BINILANGGO -0.2552
-4.8251 BINISAY -0.3009
-4.8251 BINIYAAN -0.2962
-4.3480 BINTANA -0.2581
-4.8251 BINUANG -0.2581
-4.8251 BINUGAO -0.3008
-4.8251 BINUHAT -0.2581
-4.5241 BINUHATAN -0.2919
-4.8251 BINULA -0.2581
-4.8251 BINUNALAN -0.2581
-4.8251 BINUTBOT -0.2581
-4.8251 BINUYOKAN -0.3005
-4.8251 BIOLOHIKAL -0.2581
-4.8251 BIPSTIKON -0.2581
-4.8251 BIRHEN -0.2581
-4.5241 BIRONDO -0.3010
-4.8251 BIRTH -0.2581
-4.8251 BIRTHDAY -0.2581
-4.8251 BISAG -0.2581
-4.8251 BISAGRA -0.2581
-3.3200 BISAN -0.2370
-4.8251 BISAYA -0.2581
-4.8251 BISBOL -0.2581
-4.8251 BISBOLAN -0.2581
-4.8251 BISCOCHO -0.2581
-4.5241 BISDAK -0.2580
-4.8251 BISE -0.3009
-4.8251 BISEKLITA -0.2581
-4.8251 BISIG -0.3010
-4.5241 BISIKLETA -0.2581
-4.3480 BISITA -0.2581
-4.8251 BISITAHAN -0.3009
-4.8251 BISKWIT -0.2581
-4.8251 BISTI -0.2581
-4.8251 BISTIDA -0.2581
-4.8251 BISTO -0.2581
-4.8251 BITAW -0.2581
-4.8251 BITE -0.2581
-4.8251 BITIIS -0.2581
-4.8251 BITIN -0.2581
-4.8251 BITOK -0.2581
-4.8251 BITUN -0.2581
-4.8251 BITUON -0.2581
-4.8251 BIYA -0.2581
-4.8251 BIYAAN -0.2581
-4.8251 BIYAHE -0.2581
-4.8251 BIYAHERO -0.2581
-4.8251 BIYATILIS; -0.3010
-4.8251 BIYAYA -0.3010
-4.5241 BIYERNES -0.2581
-4.8251 BIYOGRAPIYA -0.2581
-4.8251 BIYOLETA -0.2581
-4.8251 BIYOLOGO -0.2581
-4.8251 BIYUDA -0.2581
-4.8251 BIYUDO -0.2581
-4.8251 BLACKMAIL -0.2581
-4.8251 BLADE -0.3010
-4.8251 BLAME -0.2581
-4.8251 BLANGKO -0.2581
-4.8251 BLAWS -0.2581
-4.8251 BLIND -0.2581
-4.8251 BLLOD -0.2581
-4.8251 BLOTTER -0.2920
-4.8251 BLUSA -0.2581
-4.8251 BO -0.2581
-4.8251 BOANG -0.2581
-4.8251 BOANGBOANG -0.2581
-4.8251 BOARD -0.2581
-4.8251 BOARDER -0.2581
-4.8251 BOBONG -0.3010
-4.8251 BODEGA -0.2581
-4.8251 BOGO -0.2967
-4.8251 BOHOL -0.2989
-4.8251 BOKSIDOR -0.2581
-4.8251 BOKSING -0.2581
-4.8251 BOKSINGERO -0.2581
-4.8251 BOKSIYADOR -0.2967
-4.5241 BOLA -0.2581
-4.8251 BOLING -0.2581
-4.8251 BOLSA -0.2581
-3.9800 BOLUNTARYO -0.2455
-4.8251 BOLUNTARYOHA -0.2962
-4.8251 BOMBA -0.2581
-4.8251 BOMBAHE -0.2581
-4.8251 BOMBARDIYO -0.2581
-4.8251 BOMBAY -0.2581
-4.8251 BOMBERO -0.2581
-4.8251 BONETE -0.2581
-4.8251 BONIFACIO -0.2989
-4.5241 BONNET -0.2989
-4.8251 BONTONG -0.3009
-4.8251 BONUS -0.2581
-4.8251 BOOGER -0.2581
-4.8251 BOOM -0.2581
-4.8251 BOOT -0.2581
-4.8251 BORDER -0.2581
-4.8251 BORJA -0.3010
-4.8251 BORROW -0.2581
-4.8251 BOSS -0.2581
-4.8251 BOTANISTA -0.2581
-4.8251 BOTAS -0.2581
-4.8251 BOTELYA -0.2581
-4.8251 BOTHER -0.2581
-4.8251 BOTIKA -0.2581
-4.8251 BOTILYA -0.2581
-4.8251 BOTOS -0.2920
-4.8251 BOUNDARY -0.2581
-4.8251 BOXING -0.2581
-4.8251 BOYAHAN -0.2581
-4.8251 BRA -0.2581
-4.8251 BRAD -0.3010
-4.5241 BRAKE -0.2871
-4.8251 BRANDI -0.2581
-4.8251 BRASA -0.2581
-4.8251 BRASO -0.2581
-4.8251 BRAVE -0.2581
-4.8251 BRAWN -0.2581
-4.8251 BRAWONKAPE -0.2581
-4.8251 BRAYT -0.2581
-4.8251 BREAKFAST -0.2581
-4.8251 BRET -0.2581
-4.3480 BRGY -0.3009
-4.8251 BRIBE -0.2581
-4.8251 BRIGADA -0.2581
-4.8251 BRILYANTE -0.2581
-4.8251 BRITIS -0.2581
-4.8251 BRITISH -0.2581
-4.8251 BROKER -0.2581
-4.8251 BRONGKITIS -0.2581
-4.8251 BRONSE -0.2581
-4.8251 BROTHER -0.2920
-4.8251 BROWN -0.2581
-4.8251 BRUCE -0.3010
-4.5241 BRUSH -0.2581
-4.8251 BUAK -0.2581
-4.2231 BUANG -0.2581
-4.8251 BUAYA -0.2581
-4.8251 BUBHO -0.2920
-4.8251 BUBUKOL -0.2581
-4.8251 BUCANA -0.3009
-4.8251 BUCK -0.2581
-4.8251 BUDBOD -0.2581
-4.3480 BUDGET -0.2528
-4.8251 BUDHI -0.2581
-4.8251 BUDISMO -0.2581
-4.8251 BUDISTA -0.2581
-4.8251 BUDYONG -0.2581
-4.5241 BUENAFE -0.2967
-4.8251 BUENAVISTA -0.2989
-4.1261 BUG -0.3010
-4.8251 BUGAN -0.2581
-4.8251 BUGANA -0.2581
-4.0470 BUGAS -0.2531
-4.8251 BUGASBUGAS -0.2581
-4.8251 BUGAT -0.2581
-4.8251 BUGAW -0.2581
-4.8251 BUGAY -0.2581
-4.8251 BUGDO -0.2581
-4.5241 BUGKOS -0.2581
-4.1261 BUGNAW -0.2532
-4.8251 BUGNO -0.2581
-4.8251 BUGO -0.2581
-4.8251 BUGOY -0.2581
-4.8251 BUGTI -0.2920
-4.3480 BUGTONG -0.2581
-4.8251 BUGWAL -0.2581
-4.2231 BUHAT -0.2461
-4.3480 BUHATA -0.2575
-4.3480 BUHATAN -0.2481
-4.8251 BUHATASA -0.3006
-4.8251 BUHATI -0.2581
-3.9800 BUHATON -0.2460
-4.5241 BUHAWI -0.2581
-4.8251 BUHAY -0.3010
-4.2231 BUHI -0.2569
-4.8251 BUHIAN -0.3008
-4.8251 BUHII -0.2581
-4.8251 BUHILAMAN -0.2581
-4.8251 BUHIS -0.2581
-4.3480 BUHO -0.2481
-4.1261 BUHOK -0.2581
-4.5241 BUILDING -0.2528
-4.5241 BUKA -0.2481
-4.8251 BUKAD -0.2581
-4.2231 BUKAG -0.2533
-4.8251 BUKAL -0.2581
-4.8251 BUKALAN -0.2581
-4.3480 BUKID -0.2581
-4.3480 BUKO -0.2581
-4.2231 BUKOBUKO -0.2889
-4.1261 BUKOG -0.2431
-4.8251 BUKOL -0.2581
-4.8251 BUKON -0.2581
-4.8251 BUKOT -0.2581
-4.0470 BUKTON -0.2546
-4.8251 BULA -0.2581
-4.5241 BULAD -0.2581
-4.5241 BULAG -0.2581
-4.8251 BULAGAN -0.2581
-4.8251 BULAGAW -0.2581
-4.8251 BULAHAN -0.2581
-4.1261 BULAK -0.2481
-3.9220 BULAN -0.2432
-4.8251 BULANG -0.2581
-4.8251 BULAWAN -0.2581
-4.8251 BULAWANON -0.2581
-4.8251 BULBO -0.2581
-4.8251 BULBOL -0.2581
-4.8251 BULETIN -0.2581
-4.8251 BULGAR -0.3008
-4.8251 BULIG -0.2581
-4.8251 BULING -0.2581
-4.8251 BULINGON -0.2581
-4.8251 BULLET -0.2581
-4.8251 BULOK -0.2581
-4.8251 BULONTARYONG -0.3010
-4.5241 BULOS -0.2581
-4.8251 BULTO -0.2581
-4.8251 BULTOHON -0.3008
-4.8251 BULUHATON -0.2581
-4.8251 BUMALIK -0.2581
-4.8251 BUMANGON -0.2581
-4.8251 BUN -0.3005
-4.8251 BUNG -0.2581
-4.2231 BUNGA -0.2579
-4.8251 BUNGALOW -0.2581
-4.5241 BUNGANG -0.3010
-4.8251 BUNGDO -0.2920
-4.1261 BUNGI -0.2555
-4.5241 BUNGOT -0.2581
-4.8251 BUNGTOD -0.2581
-4.8251 BUNGUTON -0.2581
-4.8251 BUNOAY -0.2581
-4.8251 BUNOK -0.2581
-4.8251 BUNOT -0.2920
-3.6490 BUNTAG -0.2529
-4.8251 BUNTAGA -0.3008
-4.8251 BUNYAG -0.2581
-4.8251 BUNYAGANAN -0.2581
-4.3480 BUOK -0.2580
-4.8251 BUONGON -0.2581
-4.1261 BUOT -0.2913
-4.3480 BUOTAN -0.2572
-4.8251 BUOTANG -0.3009
-4.8251 BURNABLE -0.2581
-4.8251 BUROKRASYA -0.2581
-4.8251 BUROS -0.2581
-4.8251 BUROT -0.2581
-4.8251 BURUS -0.2581
-3.7837 BUS -0.2526
-4.8251 BUSA -0.2581
-4.8251 BUSANO -0.2581
-4.8251 BUSAY -0.2581
-4.8251 BUSINESS -0.2581
-4.8251 BUSINESSMAN -0.2581
-4.8251 BUSLOT -0.2581
-4.2231 BUSOG -0.2564
-4.8251 BUSTO -0.2581
-4.8251 BUSWAK -0.2581
-4.5241 BUSY -0.2581
-4.8251 BUSYAD -0.2581
-4.8251 BUTA -0.2581
-4.8251 BUTAKAL -0.2581
-3.6490 BUTANG -0.2508
-4.8251 BUTANGA -0.2967
-4.5241 BUTANGAN -0.2581
-4.8251 BUTANGANAN -0.2581
-4.8251 BUTANGI -0.2581
-4.8251 BUTANGIRO -0.2581
-4.8251 BUTBOTON -0.2581
-4.8251 BUTBUT -0.2581
-4.8251 BUTCH -0.3010
-4.3480 BUTO -0.2579
-4.8251 BUTOBUTO -0.2581
-4.8251 BUTONES -0.2581
-4.8251 BUTONG -0.2581
-4.8251 BUTUAN -0.3008
-4.8251 BUTYAG -0.2581
-4.5241 BUUL -0.2581
-4.8251 BUULBUUL -0.2581
-4.8251 BUUTAN -0.2581
-4.8251 BUWAD -0.3010
-4.5241 BUWAG -0.2581
-4.8251 BUWAK -0.3008
-4.2231 BUWAN -0.2533
-4.8251 BUWISIT -0.2581
-4.8251 BUYBOY -0.2581
-4.8251 BUYOG -0.2581
-4.8251 BUZZ -0.2998
-4.8251 BWINGGIT -0.2581
-4.8251 BYERNES -0.2581
-4.8251 BYSTANDER -0.2581
-4.3480 C -0.3010
-4.8251 CABANCALAN -0.3010
-4.8251 CABIGAS -0.2920
-4.8251 CABRERA -0.3010
-4.8251 CAFE -0.2581
-4.2231 CAGAYAN -0.3010
-4.8251 CAKE -0.2581
-4.8251 CALAJOAN -0.3010
-4.3480 CALIDA -0.2920
-4.8251 CALINAN -0.3010
-4.8251 CALLUS -0.2581
-4.8251 CALSA -0.3008
-4.8251 CAMAMAN -0.3008
-4.8251 CAMERA -0.2581
-4.8251 CAMOTE -0.2581
-4.8251 CAMPANER -0.2962
-4.8251 CAMPUS -0.2581
-4.8251 CANADIAN -0.2581
-4.8251 CANADYANO -0.2581
-4.8251 CANCER -0.2581
-4.8251 CANTON -0.2581
-4.8251 CAP -0.2581
-4.5241 CAPA -0.2965
-4.8251 CARBINE -0.3010
-4.8251 CARBINE; -0.3010
-4.8251 CARBON -0.2581
-4.8251 CARDINAL -0.3010
-4.8251 CARUNGAY -0.3010
-4.8251 CASH -0.3010
-4.8251 CASHIER -0.2920
-4.8251 CASSETTES -0.2581
-4.8251 CAST -0.2581
-4.8251 CASTELO -0.3010
-4.8251 CASTROOS -0.3010
-4.8251 CATALINO -0.3010
-4.8251 CATHETER -0.3008
-4.5241 CEBU -0.3010
-4.8251 CEBUANO -0.2581
-4.1261 CELL -0.2580
-4.8251 CELLOPHANE -0.2967
-4.5241 CELLPHONE -0.3006
-4.8251 CELLULAR -0.3010
-4.0470 CENTER -0.2558
-4.8251 CEO -0.2581
-4.8251 CERES -0.3010
-4.8251 CESAR -0.3008
-4.8251 CHAMPIONSHIP -0.2581
-4.8251 CHANNEL -0.2581
-4.3480 CHARGE -0.2920
-4.8251 CHEF -0.2581
-4.8251 CHES -0.2581
-4.3480 CHIEF -0.3010
-4.8251 CHIP -0.2581
-4.8251 CHOCOLATE -0.2581
-4.8251 CHONG -0.3010
-4.8251 CHOPSUEY -0.2581
-4.8251 CHORISO -0.2581
-4.8251 CHRISTINE -0.3010
-4.8251 CIDG -0.2967
-4.8251 CIRIACO -0.3010
-4.1261 CITY -0.3008
-4.8251 CIUDAD -0.3009
-4.8251 CLARK -0.3009
-4.8251 CLASS -0.3006
-4.8251 CLINIC -0.3008
-4.8251 CLOSE -0.2920
-4.8251 CLUB -0.2581
-4.8251 COACH -0.2581
-4.8251 COCIDO -0.2581
-4.8251 CODE -0.2581
-4.8251 COGON -0.3009
-4.8251 COLGATE -0.2581
-4.8251 COLLAPSE -0.3008
-4.8251 COLON -0.3010
-4.8251 COME -0.3010
-4.8251 COMENDIDO -0.3010
-4.8251 COMMUNITY -0.3010
-4.8251 COMPANY -0.3010
-4.8251 COMPOSTELA -0.3009
-4.8251 COMPUTER -0.2920
-4.8251 CON -0.2581
-4.8251 CONCOLES -0.2989
-4.5241 CONFERENCE -0.2581
-4.8251 CONSOLACION -0.2581
-4.8251 CONSULTANT -0.2581
-4.8251 COOKIE -0.2581
-4.8251 COR -0.3010
-4.5241 CORDOVA -0.3010
-4.8251 CORPORATE -0.2581
-4.5241 CORRO -0.2918
-4.3480 COTABATO -0.2580
-4.8251 COURT -0.3010
-4.8251 CPPO -0.3010
-4.8251 CPU -0.2967
-4.8251 CREATED -0.3010
-4.8251 CRIME -0.3010
-4.8251 CRIMINAL -0.3010
-4.8251 CRISPY -0.3010
-4.8251 CROSSING -0.3010
-4.8251 CRUZ -0.3010
-4.8251 CURFEW -0.3008
-4.8251 CUSTOMER -0.2581
-4.8251 CUT -0.2581
-4.8251 CYBER -0.3010
-4.8251 CYCLE -0.2581
-4.5241 DA -0.2581
-4.2231 DAAN -0.2581
-4.8251 DAANHI -0.2581
-4.5241 DABAHAN -0.2581
-4.8251 DACUA -0.2967
-4.1261 DAD -0.3006
-4.8251 DADI -0.3000
-4.5241 DAG -0.3010
-4.5241 DAGAN -0.2481
-4.8251 DAGANON -0.2581
-3.9220 DAGAT -0.2456
-3.8709 DAGHAN -0.2460
-3.9220 DAGHANG -0.2992
-4.8251 DAGINOT -0.3008
-4.8251 DAGITAB -0.3010
-4.8251 DAGKO -0.2581
-4.8251 DAGKONG -0.3010
-4.8251 DAGNAY -0.2581
-4.8251 DAGOHOY -0.3010
-4.8251 DAGSA -0.2581
-4.5241 DAGUM -0.2575
-4.5241 DAGWAY -0.2581
-4.8251 DAHIG -0.2581
-4.8251 DAHIL -0.3010
-4.8251 DAHOM -0.2581
-3.9220 DAHON -0.2481
-4.8251 DAHUNOG -0.3008
-4.5241 DAIG -0.3004
-4.8251 DAITABNON -0.2581
-3.7837 DAKBAYAN -0.2457
-4.8251 DAKDAKAN -0.2581
-4.8251 DAKIT -0.2962
-4.8251 DAKLIT -0.2581
-3.8709 DAKO -0.2477
-4.8251 DAKODAKO -0.2581
-4.1261 DAKONG -0.3009
-4.8251 DAKPA -0.3008
-4.8251 DAKPON -0.2581
-3.9800 DAKU -0.2973
-4.3480 DAKUNG -0.3010
-4.8251 DAKUP -0.2581
-4.8251 DAL -0.3005
-3.9800 DALA -0.2450
-4.8251 DALAD -0.3008
-4.8251 DALAG -0.2581
-4.3480 DALAGA -0.2557
-4.1261 DALAN -0.2527
-4.8251 DALANG -0.3010
-4.8251 DALAWANG -0.2581
-4.8251 DALAYEGON -0.2581
-4.8251 DALAYGONON -0.2581
-4.8251 DALHA -0.2581
-4.8251 DALHON -0.2581
-3.6490 DALI -0.2924
-4.5241 DALIA -0.2581
-3.9800 DALING -0.3009
-4.8251 DALO -0.2581
-4.8251 DALUGDOG -0.2581
-4.5241 DALUNGGAN -0.2579
-4.8251 DAM -0.3010
-4.8251 DAMA -0.2581
-4.8251 DAMAN -0.2581
-4.8251 DAMGO -0.2581
-4.8251 DAMLAG -0.2581
-4.2231 DAN -0.2557
-4.8251 DANAG -0.2581
-4.5241 DANCE -0.2581
-4.8251 DANGAT -0.2581
-4.8251 DANGATAN -0.2581
-4.8251 DANGAW -0.2581
-4.8251 DANGER -0.2581
-4.5241 DANGGIT -0.2557
-4.8251 DANGHAG -0.2581
-4.8251 DANGTAN -0.3005
-4.8251 DANIEL -0.3010
-4.5241 DANILO -0.2989
-4.8251 DANYOS -0.2920
-4.8251 DAOG -0.2581
-4.8251 DAOGDAOG -0.2581
-4.2231 DAOT -0.2525
-4.8251 DAOTAN -0.2581
-4.8251 DAPAT -0.2581
-4.5241 DAPI -0.2581
-3.4272 DAPIT -0.2382
-4.8251 DAPITA -0.2967
-4.0470 DAPLIN -0.2481
-4.8251 DARLING -0.2581
-4.8251 DASIG -0.2581
-4.8251 DASMAGI -0.3010
-4.2231 DATA -0.2581
-4.8251 DATAHAN -0.2581
-4.5241 DATO -0.2481
-4.8251 DATU -0.2581
-4.8251 DATUNAHON -0.2581
-4.8251 DAUB -0.2581
-4.8251 DAUG -0.2920
-4.8251 DAUT -0.2581
-4.8251 DAUTAN -0.2581
-4.3480 DAVAO -0.2580
-4.1261 DAW -0.2573
-4.8251 DAWAATA -0.3010
-4.5241 DAWATA -0.2528
-4.5241 DAWATON -0.2577
-4.8251 DAWIN -0.2581
-4.8251 DAWO -0.2581
-4.8251 DAYAG -0.2581
-4.8251 DAYALOGO -0.2581
-4.8251 DAYANDAYAN -0.2581
-4.8251 DAYEG -0.2581
-3.3480 DAYON -0.2363
-4.5241 DAYONG -0.3010
-4.1261 DAYUN -0.2576
-4.8251 DBM -0.2967
-3.9220 DE -0.3009
-4.5241 DEAD -0.3008
-4.8251 DEAL -0.2581
-4.8251 DEBATE -0.2581
-4.8251 DEBOTO -0.2581
-4.8251 DECIMAL -0.2581
-4.8251 DECK -0.2581
-4.8251 DECONGEST -0.2962
-4.8251 DEGREE -0.2581
-4.5241 DEKADA -0.2533
-4.8251 DEKADANG -0.2581
-4.5241 DEL -0.3010
-4.3480 DELA -0.3010
-4.8251 DELATA -0.2581
-4.8251 DELEGATE -0.2581
-4.8251 DELIBERAN -0.2581
-4.8251 DELIKADO -0.3010
-4.8251 DELIO -0.2967
-4.8251 DEMOKRASYA -0.2581
-4.8251 DEMOKRATIKO -0.2581
-4.8251 DEMOKRATIKONG -0.2581
-4.8251 DEMOLISYON -0.3008
-4.8251 DEPARTAMENTO -0.2581
-4.2231 DEPARTMENT -0.2967
-4.8251 DEPENSA -0.2581
-4.8251 DEPINISYON -0.2581
-4.8251 DEPOSITO -0.2581
-4.8251 DERETSO -0.3009
-4.8251 DESCRIPTION -0.2581
-4.8251 DESIREE -0.3010
-4.8251 DESISYON -0.2581
-4.8251 DESPERADO -0.2581
-4.5241 DESTINASYON -0.2577
-4.5241 DESTINATION -0.2581
-4.8251 DETALYADO -0.2581
-4.8251 DETALYE -0.2581
-4.8251 DETECTION -0.3010
-4.8251 DETECTOR -0.3010
-4.8251 DETINADO -0.2581
-4.8251 DEVERA -0.3010
-4.8251 DEVICE -0.3008
-3.3066 DI -0.2825
-4.8251 DIAAN -0.3007
-3.8709 DIAY -0.2499
-4.8251 DIBORSYO -0.2581
-4.8251 DIBUYNAS -0.2581
-3.3627 DIDTO -0.2439
-4.8251 DIETO -0.3010
-4.8251 DIFFICULT -0.2581
-4.8251 DIG -0.3010
-4.3480 DIGAL -0.3008
-4.8251 DIGITAL -0.2581
-4.8251 DIGMAAN -0.3010
-4.3480 DIGOS -0.2578
-4.8251 DIGWA -0.2581
-3.4634 DIHA -0.2322
-4.8251 DIHADIHA -0.2581
-4.8251 DIHAG -0.3010
-4.8251 DIHAL -0.2581
-3.4449 DIHANG -0.2990
-4.5241 DIHAY -0.3010
-3.4827 DIIN -0.2372
-4.8251 DIING -0.3010
-4.8251 DIKSIYONARYO -0.2581
-4.8251 DIKSYONARYO -0.2581
-4.8251 DILA -0.2581
-2.9166 DILI -0.2310
-4.8251 DILIGENT -0.2581
-4.8251 DILIKADO -0.2581
-4.8251 DILIPA -0.2581
-4.8251 DILIRYO -0.2581
-4.8251 DIMALAS -0.2581
-4.3480 DIN -0.2961
-4.8251 DINAHUNAN -0.2581
-4.8251 DINALAYEG -0.2581
-4.8251 DINALIANG -0.3010
-4.8251 DINAPIT -0.2581
-4.8251 DINGDING -0.2581
-4.2231 DINHA -0.2475
-3.7459 DINHAY -0.2990
-3.4449 DINHI -0.2424
-4.8251 DINILIG -0.3009
-4.8251 DINUGOAN -0.2581
-4.8251 DINUGUAN -0.2581
-4.8251 DIOS -0.2581
-4.8251 DIOSDADO -0.3010
-4.8251 DIPERENSIYA -0.2920
-4.8251 DIPLOMAT -0.2581
-4.8251 DIPOLOG -0.3008
-4.8251 DIRECTOR -0.2920
-4.5241 DIREKSYON -0.2533
-4.8251 DIREKTA -0.2581
-4.8251 DIREKTOR -0.2581
-4.3480 DIRETSO -0.2575
-4.8251 DIRETSOHA -0.2581
-4.1261 DIRI -0.2556
-4.5241 DIRITSO -0.2481
-4.8251 DIRIYOT -0.3010
-4.8251 DISENYO -0.2581
-4.8251 DISGRASYA -0.2581
-4.8251 DISIPLINA -0.2581
-4.8251 DISKRIMINASYON -0.2581
-4.8251 DISKUSYON -0.2581
-4.8251 DISKWENTO -0.2581
-4.8251 DISPLAY -0.2581
-4.8251 DISTANSIYA -0.2581
-4.8251 DISTANSYA -0.2581
-4.8251 DISTRICT -0.3010
-4.5241 DISTRITO -0.2481
-4.5241 DISYEMBRE -0.2581
-4.8251 DISYERTO -0.2581
-4.3480 DITO -0.2581
-4.8251 DIVISION -0.2920
-4.8251 DIVISORIA -0.2581
-3.3066 DIYAK -0.2576
-4.8251 DIYAK; -0.3010
-4.2231 DIYES -0.2564
-4.3480 DIYOS -0.2528
-4.5241 DIYOTAY -0.2962
-4.1261 DIYUTAY -0.2578
-4.3480 DIYUTAYNG -0.3010
-4.8251 DNA -0.2581
-4.8251 DOBLE -0.2581
-4.8251 DOBLENG -0.3010
-4.8251 DODAGTUM -0.2581
-4.2231 DODONG -0.2581
-4.0470 DOK -0.2581
-3.9220 DOKTOR -0.2464
-4.8251 DOKTORA -0.2581
-4.8251 DOKUMENTO -0.2581
-4.8251 DOLYAR -0.2581
-4.8251 DOMESTIC -0.2581
-4.8251 DOMINANTE -0.2581
-4.1261 DOMINGGO -0.2456
-4.3480 DOMINGO -0.2578
-4.8251 DONG -0.2581
-4.8251 DONNA -0.3010
-4.8251 DORMAT -0.2581
-3.9800 DOS -0.2581
-4.8251 DOSDOS -0.3010
-4.8251 DOSE -0.2581
-4.8251 DOSENA -0.2581
-4.8251 DOSIENTOS -0.2581
-4.8251 DOWNTOWN -0.3010
-4.8251 DRAFT -0.2581
-4.8251 DRAG -0.2581
-4.8251 DRAMA -0.2581
-4.8251 DRAMATIKONG -0.2581
-4.5241 DRAYBER -0.2581
-4.8251 DREAM -0.3010
-4.1261 DRIVER -0.2941
-4.8251 DROGA -0.2581
-4.8251 DROWING -0.2581
-4.8251 DROWINGA -0.2581
-4.8251 DRUG -0.3010
-4.8251 DRUGS -0.3010
-4.8251 DT -0.3010
-4.8251 DU -0.3010
-4.8251 DUBOK -0.2581
-4.8251 DUDUKUTIN -0.2581
-4.8251 DUG -0.3010
-4.8251 DUGA -0.2581
-4.2231 DUGANG -0.2575
-4.8251 DUGANGAN -0.2581
-4.8251 DUGANGI -0.2581
-4.2231 DUGAY -0.2580
-4.2231 DUGHAN -0.2555
-4.8251 DUGHO -0.2581
-4.1261 DUGO -0.2480
-4.8251 DUGOAN -0.2581
-4.8251 DUGOKON -0.2581
-4.8251 DUGOON -0.2581
-4.8251 DUGOS -0.2581
-4.8251 DUGTONG -0.2581
-4.8251 DUGUKAN -0.2581
-3.1817 DUHA -0.2452
-4.8251 DUHADUHA -0.2581
-4.8251 DUHAY -0.3010
-4.8251 DUKA -0.2581
-4.8251 DUKOMENTO -0.2920
-3.9800 DUKOT -0.2437
-4.8251 DUL -0.3008
-4.5241 DULA -0.2581
-4.8251 DULCE -0.2581
-4.8251 DUMAGUETE -0.3008
-4.8251 DUMALA -0.2581
-4.8251 DUMAPO -0.2920
-4.8251 DUMDUM -0.2581
-4.8251 DUMILI -0.2581
-4.8251 DUMOG -0.2581
-4.8251 DUMOT -0.2581
-4.8251 DUMUDOONG -0.2581
-4.8251 DUMUT -0.2581
-3.8709 DUNA -0.2960
-3.7112 DUNAY -0.2560
-4.8251 DUNGAN -0.2581
-4.5241 DUNGGAN -0.2528
-4.8251 DUNGGANON -0.2581
-4.8251 DUNGGOANAN -0.2581
-4.5241 DUNGOG -0.2557
-4.8251 DUOK -0.2581
-3.6790 DUOL -0.2452
-4.8251 DUOLAN -0.2581
-4.8251 DUOLON -0.3001
-4.8251 DUON -0.3010
-4.8251 DUPA -0.2581
-4.8251 DUPANG -0.2581
-4.8251 DURIAN -0.2581
-4.8251 DUTERTE -0.3010
-4.5241 DUTY -0.2579
-4.8251 DUUL -0.2581
-4.5241 DUWA -0.2481
-4.8251 DUWAG -0.3010
-4.8251 DWENDE -0.2581
-4.8251 DYAKET -0.2581
-4.8251 DYAMANTE -0.2581
-4.5241 DYIP -0.2533
-4.8251 DYSS -0.3010
-4.8251 DYUTAY -0.2581
-4.3480 E -0.3000
-4.8251 EBEDENSIYA -0.2989
-4.5241 EBIDENSYA -0.2481
-4.8251 EBOLUSYON -0.2581
-4.3480 EDAD -0.2581
-4.8251 EDDIE -0.3010
-4.5241 EDIPISYO -0.2581
-4.8251 EDISYON -0.2581
-4.8251 EDITOR -0.2581
-4.8251 EDUARDO -0.2989
-4.8251 EDUKADO -0.2581
-4.5241 EDUKAR -0.2571
-4.5241 EDUKASYON -0.2581
-4.8251 EHE -0.2581
-4.8251 EHEKUTIBO -0.2581
-4.8251 EHERSISYO -0.2581
-3.8709 EIGHT -0.2581
-4.8251 EIGHTEEN -0.2581
-3.8251 EIGHTY -0.2575
-4.8251 EKONOMIKANHON -0.2581
-4.8251 EKONOMISTA -0.2581
-4.8251 EKONOMIYA -0.2581
-4.8251 EKSAKTO -0.2581
-4.3480 EKSAMEN -0.2581
-4.8251 EKSIBIT -0.2581
-4.8251 EKSPERIMENTO -0.2581
-4.8251 EKSPERTO -0.2581
-4.8251 EKSPOS -0.2581
-4.8251 EKSPRESYON -0.2581
-4.8251 EKSTRA -0.2581
-4.8251 EL -0.3010
-4.8251 ELEBETOR -0.2581
-4.8251 ELEKSYON -0.2581
-4.8251 ELEKTRISIDAD -0.2581
-4.8251 ELEKTRONIKO -0.2581
-4.8251 ELEMENTARY -0.3010
-4.5241 ELEMENTARYA -0.2581
-4.8251 ELEMENTO -0.2581
-4.8251 ELEVEN -0.2581
-4.8251 ELINO -0.3010
-4.8251 ELITE -0.2581
-4.5241 ELIZABETH -0.2967
-4.8251 ELLEN -0.2920
-4.8251 EMBAHADA -0.2581
-4.8251 EMBOLODI -0.3010
-4.8251 EMBUTIDO -0.2581
-4.3480 EMERGENCY -0.2581
-4.8251 EMOSYON -0.2581
-4.8251 EMOSYONAL -0.2581
-4.8251 EMPLEYADO -0.2581
-4.8251 ENBELOP -0.2581
-4.3480 ENERO -0.2581
-4.8251 ENFORCEMENT -0.3010
-4.8251 ENGINEER -0.2581
-4.8251 ENGINEERING -0.2581
-4.8251 ENGKWENTRO -0.2581
-4.5241 ENGLISH -0.2581
-4.8251 ENHINYERO -0.2581
-4.8251 ENLARGE -0.2581
-4.8251 ENSEMADA -0.2581
-4.8251 ENTIDAD -0.2581
-4.8251 ENTRADA -0.2581
-4.8251 ENTRY -0.2581
-4.8251 EPEFANIO -0.3010
-4.8251 EPEKTIBO -0.2581
-4.8251 EPEKTO -0.2581
-4.8251 EPISODE -0.2581
-4.8251 EPISYENTE -0.2581
-4.8251 ERIC -0.3010
-4.8251 ERNA -0.3010
-4.8251 EROPLANO -0.2581
-4.8251 ERSON -0.3010
-4.8251 ESCALATOR -0.2581
-4.8251 ESCLAMADO -0.3010
-4.8251 ESDRELON -0.2967
-4.8251 ESENSYA -0.2581
-4.8251 ESKAPO -0.2581
-4.2231 ESKINA -0.2475
-4.8251 ESKORT -0.2581
-4.8251 ESKRIBIYENTE -0.2581
-4.8251 ESKUDO -0.2581
-4.5241 ESKUWELAHAN -0.2581
-4.5241 ESKWELAHAN -0.2581
-4.8251 ESPANYA -0.2581
-4.8251 ESPESYALISTA -0.2581
-4.8251 ESPIHO -0.2581
-4.8251 ESPINIDO -0.3009
-4.8251 ESPIONAGE -0.2581
-4.8251 ESPIRITU -0.2581
-4.8251 ESPIYA -0.2920
-4.8251 ESPLIN -0.2581
-4.8251 ESPORT -0.2581
-4.8251 ESSAY -0.2581
-4.8251 ESTASYONAN -0.3010
-4.8251 ESTILO -0.2920
-4.8251 ESTORYA -0.3009
-4.8251 ESTORYAHAY -0.3008
-4.8251 ESTRIKTA -0.2581
-4.8251 ESTRIKTO -0.2581
-4.2231 ESTUDYANTE -0.2572
-4.8251 ESWELAHAN -0.2995
-4.8251 ETIQUETTE -0.2581
-4.8251 ETNIKO -0.2581
-4.8251 EUROPEAN -0.2581
-4.8251 EVIDENCE -0.2581
-4.8251 EXAMINE -0.2581
-4.8251 EXAMPLE -0.2581
-4.8251 EXCLUSIVE -0.3010
-4.5241 EXECUTIVE -0.3010
-4.8251 EXPENDITURE -0.2581
-4.8251 EXPENSIVE -0.2581
-4.8251 EXPERIENCE -0.2581
-4.8251 EXPIRE -0.2581
-4.8251 EXPLOSIVE -0.3010
-4.5241 EXTENSION -0.2579
-4.8251 EXTRAVAGANT -0.2581
-4.2231 FAMILY -0.3010
-4.8251 FAN -0.2581
-4.0470 FE -0.2928
-4.8251 FEDERAL -0.2581
-4.8251 FELTON -0.3010
-4.8251 FERDINAND -0.3010
-4.8251 FERNANDEZ -0.2920
-4.8251 FIFTEEN -0.2581
-3.8251 FIFTY -0.2575
-4.8251 FILE -0.2581
-4.8251 FILIPINO -0.3010
-4.8251 FIRE -0.3010
-4.5241 FIRM -0.2920
-4.5241 FISH -0.3010
-3.8709 FIVE -0.2581
-4.8251 FLAN -0.2581
-4.8251 FLASHFLOODS -0.3006
-4.8251 FLOOR -0.3008
-4.3480 FLORA -0.2526
-4.8251 FLORAGIPAKAON -0.3001
-4.8251 FOCUS -0.2581
-4.8251 FOOTBALL -0.2581
-4.8251 FOR -0.3010
-4.8251 FORTUNA -0.2989
-3.8251 FORTY -0.2575
-3.8709 FOUR -0.2581
-4.8251 FOURTEEN -0.2581
-4.8251 FRANC -0.3010
-4.8251 FRANCES -0.2581
-4.0470 FRANCISCO -0.2575
-4.8251 FREEZE -0.2581
-4.8251 FREQUENCY -0.2581
-4.8251 FUENTE -0.3009
-4.8251 FUNCTION -0.3010
-4.8251 G -0.2581
-4.8251 GAAN -0.2581
-4.8251 GAANO -0.3010
-4.8251 GABA -0.2581
-4.8251 GABHIONA -0.2581
-4.8251 GABHIUNA -0.2581
-3.7459 GABI -0.2563
-3.5947 GABII -0.2425
-4.8251 GABINETE -0.2581
-4.8251 GAGMAYNG -0.3010
-4.2231 GAHAPON -0.2475
-4.5241 GAHI -0.2581
-4.8251 GAHIGDA -0.2581
-4.8251 GAKAHADLOK -0.2581
-4.8251 GAKOS -0.2581
-4.8251 GALAB -0.3010
-4.8251 GALAMITON -0.2581
-4.8251 GALAXY -0.2581
-4.8251 GALAY -0.2920
-4.8251 GALINGON -0.3005
-4.8251 GALLERY -0.2581
-3.8251 GAMAY -0.2529
-4.5241 GAMAYNG -0.3010
-4.8251 GAMBALAY -0.2581
-4.8251 GAMHANAN -0.2581
-4.3480 GAMIT -0.2527
-4.8251 GAMITAN -0.2581
-4.5241 GAMITON -0.2580
-4.8251 GAMOT -0.2920
-4.3480 GAMUT -0.2581
-4.5241 GANA -0.2581
-4.8251 GANADO -0.3000
-4.5241 GANAHAN -0.2581
-4.8251 GANAHON -0.3000
-4.8251 GANANCIA -0.2581
-4.8251 GANANG -0.3010
-4.8251 GANG -0.2581
-4.5241 GANGHAAN -0.2581
-3.8709 GANI -0.2514
-4.8251 GANID -0.2581
-4.8251 GANIG -0.3010
-4.5241 GANIHA -0.2577
-4.5241 GANINA -0.2581
-4.2231 GANING -0.3008
-4.8251 GANSA -0.2581
-4.5241 GANSANG -0.2581
-4.8251 GANSILYO -0.2581
-4.5241 GANTANG -0.2919
-4.8251 GANTI -0.2581
-4.5241 GAPAS -0.2581
-4.8251 GAPNUD -0.2581
-4.8251 GARA -0.3010
-4.8251 GARAHE -0.2581
-4.8251 GARANTIYA -0.2581
-4.8251 GARAON -0.2581
-4.8251 GARBAGE -0.3010
-4.8251 GARBANSOS -0.2581
-4.8251 GARBOSO -0.2581
-4.8251 GARCIA -0.2581
-4.8251 GARDEN -0.2581
-4.8251 GAS -0.2581
-4.8251 GASA -0.2581
-4.8251 GASABA -0.2581
-4.8251 GASOLINA -0.2581
-4.8251 GASOLINAN -0.3008
-4.8251 GASOLINE -0.2581
-4.8251 GASTADOR -0.2581
-4.8251 GASTO -0.2581
-4.8251 GASTOHAN -0.2581
-4.8251 GASTOHON -0.2581
-4.8251 GASTOON -0.2581
-4.8251 GASUL -0.2581
-4.2231 GATAS -0.2581
-4.8251 GATASAN -0.2581
-4.8251 GATOS -0.2581
-4.8251 GATUON -0.2581
-4.8251 GATUS -0.2581
-4.8251 GATUSAN -0.2581
-3.9800 GAVINO -0.2478
-4.8251 GAW -0.2581
-4.5241 GAWA -0.2581
-4.8251 GAWAIN -0.2995
-3.8251 GAWAS -0.2470
-4.8251 GAWASAN -0.2581
-4.8251 GAWASON -0.2581
-4.8251 GAYAS -0.2989
-3.9800 GAYOD -0.2517
-4.8251 GAYON -0.3010
-4.8251 GAYOY -0.3010
-3.7459 GAYUD -0.2424
-4.8251 GAYUD; -0.3010
-4.8251 GEMS -0.2581
-4.8251 GENE -0.2581
-4.8251 GENERAL -0.3010
-4.8251 GENEROUS -0.2581
-4.8251 GENETIC -0.2581
-4.8251 GEOFFREY -0.3010
-4.5241 GERILYA -0.2920
-4.8251 GHOST -0.2581
-4.2231 GI -0.3010
-4.8251 GIAGHAT -0.2581
-4.8251 GIAGIAN -0.2581
-4.3480 GIANDAM -0.2561
-4.8251 GIANGKON -0.2581
-4.8251 GIANHA -0.2920
-4.8251 GIANOD -0.2581
-4.8251 GIANTAWAN -0.2920
-4.8251 GIAPILAN -0.2581
-4.8251 GIATANGAN -0.2581
-4.8251 GIATAY -0.2581
-4.5241 GIATIMAN -0.2481
-4.5241 GIATUBANG -0.2533
-4.8251 GIBABAD -0.2581
-4.8251 GIBABAG -0.2989
-4.8251 GIBABAGAN -0.3006
-4.8251 GIBADBAD -0.2962
-4.5241 GIBADLONG -0.2996
-4.8251 GIBAHIN -0.2581
-4.8251 GIBAKWITAN -0.2581
-4.5241 GIBALIGYA -0.2578
-4.8251 GIBALIK -0.2962
-4.8251 GIBALITA -0.3006
-4.8251 GIBANA -0.3010
-4.5241 GIBANABANA -0.2533
-4.8251 GIBANG -0.2581
-4.8251 GIBANSAY -0.2581
-4.8251 GIBANTAYAN -0.2581
-4.8251 GIBASA -0.2581
-4.8251 GIBASULAN -0.3000
-3.8709 GIBATI -0.2563
-4.8251 GIBATING -0.3010
-4.8251 GIBAYAD -0.2581
-4.8251 GIBAYARAN -0.2581
-4.8251 GIBAYRAN -0.2581
-4.8251 GIBILIN -0.2581
-4.8251 GIBISITA -0.2920
-4.5241 GIBITBIT -0.2571
-4.8251 GIBITUONAN -0.2581
-4.8251 GIBIYAAN -0.2581
-4.8251 GIBO -0.3009
-4.8251 GIBOMBAHAN -0.2581
-4.5241 GIBUG -0.3010
-4.8251 GIBUGKOS -0.2581
-4.8251 GIBUGKUSAN -0.2581
-4.0470 GIBUHAT -0.2580
-4.8251 GIBULAD -0.2581
-4.8251 GIBULAGAN -0.2581
-4.8251 GIBUNALAN -0.2581
-4.8251 GIBUNLOT -0.2920
-4.8251 GIBUSA -0.2581
-4.8251 GIBUTANG -0.2920
-4.8251 GIBUTANGAN -0.2581
-4.3480 GIBUTYAG -0.2478
-4.5241 GIDAGIT -0.2950
-4.8251 GIDAK -0.3008
-3.9800 GIDALA -0.2419
-4.5241 GIDALI -0.2920
-4.8251 GIDAPIT -0.2581
-4.8251 GIDASONAN -0.3009
-4.5241 GIDEKLARAR -0.2876
-4.8251 GIDETALYE -0.3001
-4.8251 GIDIKLARAR -0.2920
-4.3480 GIDILI -0.2560
-4.8251 GIDUDAHAN -0.2967
-4.8251 GIDUKA -0.2581
-4.8251 GIDUNGOG -0.2581
-4.3480 GIDUOL -0.2918
-4.8251 GIDUOLAN -0.2581
-4.5241 GIDUSLAK -0.2871
-4.5241 GIDUSO -0.2920
-4.8251 GIENTRAHAN -0.3007
-4.8251 GIFTED -0.2581
-4.2231 GIGAMIT -0.2462
-4.8251 GIGAPOS -0.2581
-4.8251 GIGIKANAN -0.3005
-4.8251 GIGIPONG -0.3007
-4.8251 GIGISA -0.2581
-4.8251 GIGRUPO -0.2581
-4.8251 GIGULGOL -0.2581
-4.5241 GIGUTOM -0.2564
-4.8251 GIHABWA -0.2920
-4.8251 GIHADLOK -0.3005
-4.8251 GIHANDOM -0.2581
-4.8251 GIHANGGAT -0.2581
-4.8251 GIHANGYO -0.2581
-3.7837 GIHAPON -0.2535
-4.8251 GIHAPOS -0.3008
-4.8251 GIHAPOY -0.3010
-4.8251 GIHATAG -0.2581
-4.5241 GIHATAGAN -0.2999
-4.8251 GIHAYLO -0.2581
-4.8251 GIHIGDAAN -0.3010
-4.5241 GIHIGOT -0.2920
-3.9220 GIHIGUGMA -0.2533
-4.8251 GIHIKAP -0.3008
-4.5241 GIHIKAY -0.2528
-4.8251 GIHIKTAN -0.2920
-4.8251 GIHIKYAD -0.3000
-4.5241 GIHILANTAN -0.2570
-4.2231 GIHIMO -0.2471
-4.8251 GIHIMONG -0.3010
-4.3480 GIHINABI -0.2920
-4.5241 GIHINAY -0.3010
-4.8251 GIHINGANLAN -0.2581
-4.8251 GIHINUKTOKAN -0.2581
-4.8251 GIHIPA -0.2581
-4.8251 GIHISGOTAN -0.2581
-4.8251 GIHOLD -0.3010
-4.8251 GIHUBAD -0.2581
-4.8251 GIHUBAGAN -0.2581
-4.8251 GIHUGTAN -0.3010
-4.5241 GIHULAGWAY -0.2533
-4.8251 GIHUMOL -0.2920
-4.8251 GIHUPTAN -0.2581
-4.8251 GIHURNO -0.2581
-4.8251 GIHUWAT -0.3005
-4.8251 GIIBOT -0.2962
-4.8251 GIIGO -0.2581
-4.8251 GIIHAW -0.2581
-4.3480 GIILA -0.2920
-4.5241 GIILANG -0.3007
-4.8251 GIIMBESTIGAHAN -0.3010
-4.8251 GIIMBESTIGAR -0.2581
-4.8251 GIIMNAN -0.2920
-4.5241 GIINGNAN -0.2580
-4.2231 GIINGON -0.2533
-3.8709 GIINGONG -0.2959
-4.8251 GIINTERBYU -0.2581
-4.8251 GIISIP -0.2967
-4.8251 GIISTORYAHAN -0.2581
-4.8251 GIKABIBUHAN -0.2581
-4.8251 GIKABUANGAN -0.2581
-4.8251 GIKABUHI -0.2581
-4.8251 GIKAESTORYA -0.2989
-4.8251 GIKAHILIGAN -0.2581
-4.5241 GIKAHINABI -0.2920
-4.8251 GIKAINTAPAN -0.2581
-4.8251 GIKAISTORYA -0.2581
-4.8251 GIKAKITA -0.2962
-4.5241 GIKALIPAY -0.3000
-4.8251 GIKAMATYAN -0.2581
-3.5029 GIKAN -0.2468
-4.5241 GIKAPOY -0.3000
-4.8251 GIKASILAGAN -0.3000
-4.8251 GIKASUBO -0.3000
-4.8251 GIKATABANG -0.2581
-4.8251 GIKATAHAPAN -0.2967
-4.5241 GIKATAHO -0.2967
-4.8251 GIKAUBAN -0.2581
-4.8251 GIKAWAT -0.3008
-4.8251 GIKINAHANGLAN -0.2581
-4.8251 GIKOLEKTA -0.2581
-4.8251 GIKOMOT -0.2581
-4.8251 GIKONDENAR -0.2581
-4.8251 GIKONSULTA -0.2581
-4.8251 GIKORAL -0.2581
-4.5241 GIKUHA -0.2528
-4.8251 GIKULATA -0.2581
-4.8251 GIKULBAAN -0.2967
-4.8251 GIKUMOT -0.2581
-4.8251 GIKUSGON -0.2581
-4.8251 GIKUTASAN -0.2989
-4.8251 GIKUTLO -0.2581
-4.8251 GIKUTO -0.2581
-4.8251 GIKUYAWAN -0.2581
-4.8251 GIKWARENTAYN -0.2581
-4.8251 GILA -0.3009
-4.8251 GILAAY -0.2581
-4.8251 GILABAY -0.3010
-4.8251 GILABNI -0.2581
-4.8251 GILADMON -0.2581
-4.8251 GILAKON -0.3000
-4.5241 GILAMBOD -0.2952
-4.5241 GILAMBOS -0.2579
-4.8251 GILAMISA -0.2581
-4.8251 GILANGKOBAN -0.2581
-4.8251 GILANTAW -0.3001
-4.8251 GILARAY -0.2967
-4.8251 GILAWA -0.3010
-4.8251 GILAY -0.3010
-4.5241 GILAYOG -0.2575
-4.3480 GILAYON -0.2578
-4.8251 GILAYONG -0.3010
-4.8251 GILIBOTAN -0.2581
-4.8251 GILISDAN -0.3010
-4.8251 GILIYOK -0.3010
-4.8251 GILLAMAC -0.3010
-4.8251 GILUAGAN -0.3001
-4.8251 GILUBA -0.2920
-4.8251 GILUKAT -0.2581
-4.8251 GILUMOT -0.2581
-4.8251 GILUNGKAB -0.2581
-4.8251 GILUT -0.3010
-4.5241 GILUTO -0.3001
-4.8251 GILUWATAN -0.3008
-4.8251 GIMANDO -0.2581
-4.5241 GIMANEHO -0.2953
-4.8251 GIMANEHONG -0.3010
-4.8251 GIMATNGONAN -0.3001
-4.5241 GIMINGAW -0.2581
-4.8251 GINAKOT -0.2581
-4.8251 GINAMOS -0.2581
-4.8251 GINAMUS -0.2581
-4.8251 GINANSIYA -0.2581
-4.5241 GINGANLAG -0.3010
-4.5241 GINGANLAN -0.3005
-4.2231 GINHAWA -0.2557
-3.8251 GINIKANAN -0.2453
-4.8251 GINISAL -0.2967
-4.0470 GINOO -0.2528
-4.8251 GINTO -0.2581
-4.8251 GINUKDANAY -0.3010
-4.8251 GIORDER -0.2581
-4.8251 GIPAABOT -0.2962
-4.8251 GIPAAWAT -0.2581
-4.8251 GIPABAKWIT -0.2581
-4.8251 GIPABALIK -0.2581
-4.8251 GIPABUKALAN -0.2581
-4.8251 GIPABUTO -0.2581
-4.8251 GIPADALI -0.3000
-4.8251 GIPADAYAG -0.3008
-4.8251 GIPAESKWELA -0.2581
-4.8251 GIPAHIABAWO -0.2967
-4.8251 GIPAHIBALO -0.2581
-4.3480 GIPAHIBAWO -0.2870
-4.8251 GIPAHIGAYON -0.2581
-4.8251 GIPAHILUNA -0.2995
-4.8251 GIPAHINUMDOMAN -0.2581
-4.8251 GIPAHUNONG -0.3008
-4.8251 GIPAILA -0.2581
-4.8251 GIPAILIS -0.2581
-4.8251 GIPAISA -0.2962
-4.3480 GIPAKANAOG -0.2912
-4.5241 GIPAKAON -0.2571
-4.8251 GIPAKATAP -0.2581
-4.8251 GIPAKITA -0.2581
-4.8251 GIPALAMAN -0.2581
-4.5241 GIPALIT -0.2570
-4.8251 GIPALITAN -0.2581
-4.8251 GIPAMATUD -0.3008
-4.5241 GIPANAG -0.3009
-4.8251 GIPANGAB -0.3010
-4.8251 GIPANGANDAMAN -0.2581
-4.8251 GIPANGANDOY -0.2967
-4.3480 GIPANGAYO -0.2480
-4.8251 GIPANGDALA -0.2581
-4.8251 GIPANGHASI -0.2962
-4.8251 GIPANGHATAG -0.2962
-4.2231 GIPANGITA -0.2471
-4.8251 GIPANGLISTA -0.2581
-4.8251 GIPANGULITAWHAN -0.2581
-4.5241 GIPANGULOHAN -0.2571
-4.8251 GIPANGUTANA -0.2581
-4.8251 GIPANIHAPON -0.3010
-4.8251 GIPANINGKAMOTAN -0.3008
-4.8251 GIPANINGOT -0.3010
-4.8251 GIPANUMPA -0.2581
-4.8251 GIPAOTENTEKEYT -0.2581
-4.8251 GIPAPAULI -0.2581
-4.8251 GIPARA -0.2581
-4.8251 GIPARTIHAN -0.2581
-4.8251 GIPASABOT -0.2581
-4.8251 GIPASABUT -0.2581
-4.8251 GIPASAGDAN -0.2989
-4.8251 GIPASAHAN -0.2920
-4.5241 GIPASAKAY -0.2567
-4.8251 GIPASANGINLAN -0.3008
-4.8251 GIPASAYO -0.2920
-4.8251 GIPASIBYA -0.2581
-4.8251 GIPASIDAN -0.3008
-4.8251 GIPASIUGDAHAN -0.2581
-4.5241 GIPASOK -0.2910
-4.8251 GIPASPASAN -0.2920
-4.8251 GIPATAAS -0.2581
-4.8251 GIPATAM -0.3010
-4.8251 GIPATAWAG -0.3001
-4.3480 GIPATAY -0.2427
-4.5241 GIPATONG -0.2528
-4.8251 GIPAUBOS -0.3005
-4.8251 GIPAUTANG -0.2998
-4.8251 GIPILDI -0.2581
-4.8251 GIPLANO -0.2581
-4.8251 GIPONG -0.2920
-4.8251 GIPRENDA -0.2581
-4.8251 GIPRISO -0.2989
-4.8251 GIPROTESTAAN -0.3001
-4.8251 GIPUN -0.3008
-4.8251 GIPUNTINGAN -0.2920
-3.8251 GIPUSIL -0.2462
-4.8251 GIPUTOS -0.2581
-4.8251 GIRAPIDO -0.2581
-4.8251 GIREKOMENDA -0.2920
-4.8251 GIRELIBHAN -0.3009
-4.8251 GIRILYA -0.2581
-4.8251 GISABOTAHE -0.2581
-4.8251 GISABOTAN -0.2581
-4.8251 GISADO -0.2581
-4.8251 GISADONG -0.3010
-4.8251 GISAGANG -0.2581
-4.8251 GISAGOL -0.2581
-4.8251 GISAKYAN -0.2581
-4.8251 GISAKYANG -0.3010
-4.8251 GISALIPOD -0.2962
-4.8251 GISALOAN -0.2920
-4.8251 GISAMAD -0.2962
-4.8251 GISANDIG -0.2920
-4.8251 GISANGYAW -0.2581
-4.8251 GISELOSAN -0.3004
-4.8251 GISERBISYOHAN -0.2581
-4.8251 GISIBO -0.2581
-4.5241 GISIKOP -0.2916
-4.8251 GISILBI -0.2581
-4.8251 GISION -0.2989
-4.2231 GISUDLAN -0.2481
-4.8251 GISUGDAN -0.2581
-4.8251 GISUGOT -0.3010
-4.8251 GISULONG -0.2581
-4.3480 GISULTI -0.2577
-4.8251 GISULTIHAN -0.3000
-4.8251 GISUMBONG -0.2581
-4.8251 GISUMITER -0.2920
-4.1261 GISUNDAN -0.2438
-4.5241 GISUNOD -0.2905
-4.8251 GISUOTAN -0.2581
-4.5241 GISUSI -0.2581
-4.8251 GISUSPETSAHAN -0.2581
-4.8251 GITABANG -0.2920
-4.8251 GITABANGAN -0.3005
-4.8251 GITAGAAN -0.2581
-4.8251 GITAHAPAN -0.2581
-4.8251 GITAHASAN -0.2962
-4.8251 GITAKLOB -0.2920
-4.8251 GITAMAD -0.3000
-4.8251 GITAMBAGAN -0.2581
-4.5241 GITAMBALAN -0.2528
-4.8251 GITAN -0.3010
-4.8251 GITANGAG -0.2920
-4.8251 GITANGGONG -0.3008
-4.8251 GITANYAG -0.2581
-4.8251 GITAPULAN -0.3000
-4.5241 GITARA -0.2567
-4.8251 GITAS -0.3008
-4.8251 GITAWAG -0.2581
-4.5241 GITAWAGAN -0.2952
-4.8251 GITAWGAN -0.3001
-4.8251 GITIAW -0.3010
-4.5241 GITIGBAS -0.2557
-4.8251 GITIK -0.2581
-4.8251 GITIKYOPAN -0.3010
-4.8251 GITILAWAN -0.2581
-4.8251 GITIMBAYA -0.2581
-4.8251 GITIMO -0.3010
-4.8251 GITIONAN -0.3010
-4.8251 GITIPIGAN -0.2581
-4.8251 GITISTINGAN -0.2581
-4.8251 GITORTA -0.2581
-4.8251 GITRABAHOAN -0.3010
-4.5241 GITUBAG -0.2481
-4.8251 GITUDLOAN -0.2581
-4.8251 GITUG -0.3008
-4.8251 GITUGKAN -0.3009
-4.8251 GITUGNAW -0.3010
-4.8251 GITUGNAWKO -0.2581
-4.8251 GITULIS -0.2962
-4.8251 GITUNGHAAN -0.2920
-4.2231 GITUOHAN -0.2533
-4.1261 GITUOHANG -0.2984
-4.5241 GITUPIHAN -0.2920
-4.5241 GITUTOKAN -0.3008
-4.8251 GITUYO -0.2581
-4.8251 GIUB -0.3008
-4.8251 GIUBO -0.2581
-4.8251 GIUHAW -0.2581
-4.8251 GIUKAY -0.3009
-4.5241 GIUNA -0.2576
-4.8251 GIUNAHAN -0.2581
-4.8251 GIUPUKAN -0.2581
-4.8251 GIUT -0.3010
-4.8251 GIWALA -0.2581
-4.5241 GIYA -0.2579
-4.8251 GLAD -0.2581
-4.8251 GLORIA -0.3010
-4.8251 GLUTTON -0.2581
-4.8251 GMA -0.3010
-4.8251 GN -0.3010
-4.5241 GO -0.3007
-4.5241 GOBERNADOR -0.2581
-4.8251 GOBYERNO -0.2581
-4.0470 GOD -0.2949
-4.8251 GOING -0.3005
-4.8251 GOL -0.2581
-4.5241 GOLF -0.2581
-4.8251 GOLI -0.2581
-4.8251 GOMA -0.2581
-4.8251 GONZALES -0.3010
-4.8251 GOVERNMENT -0.3010
-4.8251 GRAB -0.2581
-4.8251 GRABE -0.2581
-4.8251 GRABEHAN -0.2998
-4.8251 GRABENG -0.3010
-4.3480 GRADO -0.2481
-4.8251 GRADUATING -0.3010
-4.8251 GRADUHA -0.2962
-4.8251 GRADUWADO -0.2581
-4.8251 GRAMMAR -0.2581
-4.3480 GRANADA -0.2527
-4.8251 GRANO -0.2581
-4.5241 GRASYA -0.2920
-4.8251 GRATEFUL -0.2581
-4.8251 GRESILDA -0.3010
-4.8251 GRIFFITHS -0.3010
-4.8251 GRIN -0.2581
-4.8251 GROCERY -0.2581
-4.8251 GROUP -0.3010
-4.1261 GRUPO -0.2480
-4.5241 GUAPA -0.2528
-4.5241 GUAPO -0.2581
-4.8251 GUARANTEE -0.2581
-4.5241 GUARD -0.2481
-4.8251 GUARDIAN -0.2581
-4.8251 GUB -0.3008
-4.5241 GUBAT -0.2581
-4.8251 GUBOT -0.2581
-3.5029 GUD -0.2577
-4.5241 GUEST -0.3010
-4.3480 GUGMA -0.2579
-4.8251 GUGMANG -0.3010
-4.8251 GUILTY -0.2581
-4.8251 GUKOD -0.2581
-4.8251 GULLAS -0.2967
-4.8251 GULOT -0.2967
-4.8251 GUM -0.3010
-4.8251 GUMAGA -0.3010
-4.5241 GUMAGAAN -0.3009
-4.8251 GUMALAYSAY -0.2581
-3.9800 GUMIKAN -0.2476
-4.8251 GUMUNHAP -0.2581
-4.8251 GUNA -0.2581
-4.8251 GUNITI -0.2581
-4.8251 GUNMAN -0.3009
-4.8251 GUROYON -0.3008
-4.8251 GURPO -0.2581
-4.5241 GUSA -0.3009
-4.8251 GUSOK -0.2581
-3.3480 GUSTO -0.2457
-4.8251 GUSTOG -0.3010
-4.1261 GUSTONG -0.3010
-4.8251 GUTLO -0.2581
-4.5241 GUTOM -0.2581
-4.8251 GUTUAL -0.2920
-4.8251 GUUD -0.2581
-4.8251 GUWAPA -0.2581
-4.5241 GUWAPO -0.2581
-4.5241 GUYOD -0.2577
-4.8251 GWANTES -0.2581
-4.8251 GWAPA -0.2581
-4.8251 GWAPO -0.2581
-4.8251 GWARDYA -0.2581
-4.8251 GWEN -0.2920
-4.3480 GYOD -0.2427
-3.9800 GYUD -0.2519
-4.8251 H -0.3010
-4.3480 HA -0.2581
-4.8251 HABA -0.3007
-4.8251 HABAGAT -0.2581
-4.8251 HABAGATAN -0.2581
-4.8251 HABALHABAL -0.2581
-4.5241 HABIG -0.3010
-4.8251 HABIT -0.2581
-4.2231 HABOL -0.2579
-4.5241 HADLOK -0.2578
-4.8251 HADLOKON -0.2581
-4.8251 HAGAKHAK -0.2581
-4.8251 HAGBAYANG -0.3010
-4.8251 HAGDAN -0.2581
-4.5241 HAGIT -0.2571
-4.8251 HAGITON -0.2581
-4.8251 HAGKAN -0.2581
-4.8251 HAGO -0.2581
-4.8251 HAGONG -0.2581
-4.8251 HAGONGAN -0.2581
-4.8251 HAGONOY -0.2581
-4.8251 HAGPATON -0.2581
-4.8251 HAGURUS -0.2581
-3.6790 HAIN -0.2479
-4.8251 HAING -0.3010
-4.8251 HAIR -0.3010
-4.8251 HAIT -0.2581
-4.8251 HAKOG -0.2581
-4.8251 HAKOGAN -0.2581
-4.8251 HAKOP -0.2581
-4.8251 HAKOT -0.2581
-4.5241 HALA -0.2581
-4.8251 HALABOS -0.2581
-4.8251 HALAKHAK -0.2581
-4.8251 HALANG -0.2581
-4.8251 HALAP -0.2581
-4.5241 HALAPAD -0.2580
-4.5241 HALAS -0.2581
-4.8251 HALAYO -0.2581
-4.8251 HALF -0.3010
-4.8251 HALIGI -0.2581
-4.8251 HALIN -0.2581
-4.8251 HALINON -0.2581
-4.8251 HALIYA -0.2581
-4.5241 HALL -0.2576
-4.8251 HALOGHOG -0.2581
-4.8251 HALOK -0.2581
-4.8251 HALOKAN -0.2581
-4.8251 HALONG -0.2581
-4.8251 HALOS -0.2581
-4.8251 HAMBOG -0.2581
-4.8251 HAMBOGERO -0.2581
-4.5241 HAMBUG -0.2581
-4.8251 HAMIS -0.2581
-4.8251 HAMON -0.2581
-4.8251 HAMONADO -0.2581
-4.2231 HAMTONG -0.2511
-4.8251 HAMUBONG -0.2581
-4.8251 HAMUGAWAY -0.2581
-4.5241 HANAP -0.2575
-4.8251 HANAS -0.2581
-4.8251 HANAW -0.2581
-4.8251 HANDCUFF -0.2581
-4.8251 HANDGUN -0.2989
-4.8251 HANDHELD -0.3010
-4.8251 HANDOM -0.2581
-4.8251 HANDOMON -0.2581
-4.8251 HANDSOME -0.2581
-4.8251 HANDUMANAN -0.2581
-4.8251 HANDWRITING -0.2581
-4.8251 HANG -0.2581
-4.8251 HANGGA -0.2581
-4.1261 HANGIN -0.2581
-4.8251 HANGINON -0.2581
-4.1261 HANGTOD -0.2481
-3.7112 HANGTUD -0.2423
-4.1261 HANGYO -0.2471
-4.8251 HANGYOON -0.2581
-4.8251 HANTAK -0.3008
-4.8251 HAP -0.2581
-4.8251 HAPAK -0.2581
-4.8251 HAPAKON -0.2581
-4.8251 HAPDOS -0.2581
-4.8251 HAPIN -0.2581
-4.0470 HAPIT -0.2462
-3.4449 HAPON -0.2387
-4.5241 HAPONES -0.2876
-4.8251 HAPPY -0.2581
-4.8251 HAPSAY -0.2581
-4.8251 HARA -0.2581
-4.8251 HARDIN -0.2581
-4.8251 HARI -0.2581
-4.8251 HARNATA -0.3010
-4.8251 HARUHAY -0.2581
-4.8251 HASHASAN -0.2581
-4.8251 HASKANG -0.3010
-4.8251 HASMAG -0.2581
-4.8251 HASOHASAN -0.2581
-4.8251 HASOLON -0.3005
-4.3480 HASTA -0.2952
-4.8251 HATAG -0.2581
-4.8251 HATAGAN -0.2581
-4.8251 HATDOG -0.2581
-4.8251 HATSA -0.2581
-4.8251 HAVE -0.3010
-4.8251 HAW -0.3010
-4.8251 HAWA -0.3009
-4.5241 HAWAK -0.2581
-4.8251 HAWAN -0.2581
-4.8251 HAWANAN -0.2581
-4.5241 HAWLA -0.2533
-4.8251 HAWSING -0.2581
-4.8251 HAYA -0.2581
-4.5241 HAYAG -0.2578
-4.8251 HAYAHAY -0.2581
-4.8251 HAYANG -0.2581
-4.8251 HAYAON -0.2581
-4.3480 HAYOP -0.2580
-4.5241 HAYSKUL -0.2580
-4.8251 HAYWEY -0.2581
-4.8251 HEADS -0.2581
-4.8251 HELEN -0.3010
-4.8251 HELIKOPTER -0.2581
-4.8251 HELLO -0.3010
-4.8251 HELMET -0.2989
-4.5241 HELPER -0.2987
-4.8251 HENRY -0.3010
-4.5241 HEPE -0.2481
-4.8251 HERE -0.2581
-4.8251 HI -0.2581
-4.8251 HIBALOAN -0.2967
-4.8251 HIBILYA -0.2581
-4.8251 HIBLA -0.2581
-4.8251 HIDLAW -0.2581
-4.8251 HIGA -0.2581
-3.9220 HIGALA -0.2532
-4.8251 HIGANTE -0.2581
-3.9800 HIGAYON -0.2426
-4.3480 HIGAYONA -0.2946
-4.8251 HIGAYUNA -0.2581
-4.8251 HIGDA -0.2581
-4.8251 HIGDAAN -0.2581
-4.5241 HIGDAANAN -0.2533
-4.8251 HIGH -0.3010
-4.8251 HIGHLIGHT -0.2581
-4.8251 HIGUGMA -0.2581
-4.8251 HIGUT -0.2581
-4.5241 HII -0.2557
-4.8251 HIKATULOG -0.2581
-4.5241 HIKAY -0.2481
-4.5241 HIKAYON -0.2919
-4.8251 HIKO -0.2581
-4.8251 HIKTIN -0.2581
-4.8251 HIKUT -0.2581
-4.8251 HILABTANON -0.2581
-4.8251 HILAK -0.2962
-4.8251 HILAKA -0.2581
-4.8251 HILAM -0.3010
-4.8251 HILAMON -0.2581
-4.5241 HILANAT -0.2558
-4.8251 HILANGHILANG -0.2581
-4.8251 HILAS -0.2581
-4.5241 HILAW -0.2581
-4.8251 HILAWAS -0.2581
-4.8251 HILIG -0.3010
-4.3480 HILOM -0.2574
-4.5241 HILUM -0.2581
-4.8251 HILUMON -0.2581
-4.8251 HIMALITAN -0.2581
-4.8251 HIMAN -0.2581
-4.8251 HIMAS -0.2581
-4.8251 HIMATNGONI -0.3008
-4.8251 HIMAYA -0.2581
-4.8251 HIMO -0.2581
-4.8251 HIMOON -0.2581
-4.8251 HIMOONG -0.3010
-4.5241 HIMSOG -0.2578
-4.8251 HIMUON -0.2581
-4.8251 HIMUOT -0.2581
-4.8251 HINABANG -0.2581
-4.8251 HINAGIBAN -0.2581
-4.8251 HINAGUAN -0.2581
-4.8251 HINALI -0.2581
-4.8251 HINAMBOG -0.2581
-4.8251 HINATAG -0.2581
-4.8251 HINATAGAN -0.2581
-4.5241 HINAY -0.2580
-4.5241 HINAYA -0.2962
-4.8251 HINAYAN -0.2581
-4.5241 HINAYHINAY -0.2581
-4.8251 HINAYON -0.2581
-3.8251 HINDI -0.2554
-4.8251 HINGIGO -0.2581
-4.8251 HINGILIN -0.2581
-4.3480 HINGPIT -0.2517
-4.8251 HINGTUNGDAN -0.2920
-4.8251 HINHIN -0.2581
-4.5241 HINIGUGMA -0.2481
-4.5241 HINIMO -0.2920
-4.8251 HINIPUNAN -0.2581
-4.8251 HINIRAM -0.3010
-4.8251 HINIUSA -0.2581
-4.8251 HINLO -0.2581
-4.1261 HINOG -0.2432
-4.5241 HINOON -0.2581
-4.8251 HINOOY -0.3010
-4.8251 HINTUTUDLO -0.2581
-4.8251 HINUBOG -0.2581
-4.8251 HINUGON -0.2581
-4.8251 HINUHULI -0.2920
-4.8251 HINULTI -0.2581
-4.8251 HINUMDOMI -0.2581
-4.8251 HINUMDUM -0.2581
-3.5241 HINUNGDAN -0.2432
-4.8251 HINUNGDANG -0.3007
-4.8251 HINUNGDANON -0.2581
-3.8251 HINUON -0.2468
-4.8251 HIPON -0.3010
-4.8251 HIPUSA -0.3006
-4.8251 HIRAM -0.2920
-4.5241 HIRAP -0.3009
-4.8251 HIRINGGILYA -0.2581
-4.8251 HISAKPON -0.3000
-4.8251 HISGAOTI -0.2962
-4.8251 HISGOT -0.2581
-4.8251 HISGOTAN -0.2581
-4.8251 HISGOTANAN -0.2581
-4.3480 HISGUTI -0.2528
-4.8251 HISTORIAN -0.2967
-4.8251 HISTORYADOR -0.2581
-4.8251 HITAAS -0.2920
-4.0470 HITABO -0.2481
-4.8251 HITSURA -0.2581
-4.8251 HIUSA -0.2581
-4.8251 HIUSAON -0.2581
-4.8251 HIYAS -0.2581
-4.8251 HO -0.3010
-4.8251 HOLY -0.3010
-4.5241 HOMICIDE -0.2920
-4.8251 HOMO -0.3010
-4.8251 HOMQUILADA -0.2581
-4.8251 HONHON -0.2581
-4.8251 HOPYA -0.2581
-3.9800 HOSPITAL -0.2428
-4.8251 HOST -0.2581
-4.8251 HOSTESS -0.2581
-4.5241 HOT -0.3010
-4.3480 HOTEL -0.2581
-4.8251 HOUR -0.2581
-4.5241 HOUSE -0.2898
-4.8251 HOYOHOY -0.2581
-4.8251 HUA -0.3010
-4.5241 HUBAG -0.2481
-4.8251 HUBAK -0.2581
-4.8251 HUBAKON -0.2581
-4.8251 HUBARA -0.2581
-4.8251 HUBARON -0.2581
-4.5241 HUBO -0.2581
-4.8251 HUBO; -0.2581
-4.3480 HUBOG -0.2563
-4.8251 HUDIYO -0.2581
-4.8251 HUDNO -0.2581
-4.8251 HUDNOHAN -0.2581
-4.2231 HUGAW -0.2453
-4.8251 HUGNA -0.2920
-4.8251 HUGNO -0.2581
-4.2231 HUGOT -0.2989
-4.5241 HUGOTHUOT -0.3009
-4.8251 HUGPONG -0.2581
-4.8251 HUGUT -0.3009
-4.8251 HUHOD -0.3008
-4.3480 HULAGWAY -0.2432
-4.8251 HULAM -0.2581
-4.8251 HULAT -0.2581
-4.5241 HULATA -0.2570
-4.8251 HULATI -0.2581
-4.8251 HULATON -0.2581
-4.3480 HULAW -0.2581
-4.8251 HULING -0.3010
-4.8251 HULIP -0.2581
-4.8251 HULMA -0.2581
-4.8251 HULMIGAS -0.2581
-4.5241 HULYO -0.2581
-4.8251 HUMAHAPAK -0.2581
-3.2688 HUMAN -0.2374
-4.3480 HUMANA -0.2519
-4.8251 HUMAWAK -0.3009
-4.2231 HUMAY -0.2575
-4.8251 HUMOK -0.2581
-4.8251 HUMOR -0.2581
-4.8251 HUMOT -0.2581
-4.5241 HUNA -0.2581
-4.3480 HUNAHUNA -0.2557
-4.8251 HUNAHUNAA -0.2581
-4.8251 HUNAS -0.2581
-4.8251 HUNDRED -0.2581
-4.8251 HUNGHONG -0.3010
-4.8251 HUNGOG -0.2581
-4.8251 HUNGRY -0.2581
-4.8251 HUNI -0.2581
-4.5241 HUNIT -0.2581
-4.5241 HUNONG -0.2564
-4.3480 HUNYO -0.2581
-4.8251 HUOT -0.2581
-4.8251 HURADO -0.2581
-4.8251 HURAL -0.2581
-4.8251 HUSAYON -0.2995
-4.5241 HUSTISYA -0.2481
-4.1261 HUSTO -0.2564
-4.8251 HUT -0.3010
-4.8251 HUWATON -0.3005
-4.8251 HUWAW -0.2581
-4.8251 HUWEBES -0.2581
-4.8251 HUWES -0.2581
-4.8251 HUYOHOY -0.2581
-4.8251 HUYOP -0.2581
-4.8251 HUYPANAN -0.2581
-4.8251 HUYUP -0.2581
-4.5241 HWEBES -0.2581
-4.8251 HYPOCRITE -0.2581
-3.5947 I -0.2520
-4.8251 IBA -0.3005
-4.5241 IBABAW -0.2533
-4.3480 IBALHIN -0.2571
-4.8251 IBALIGYA -0.2581
-4.2231 IBALIK -0.2959
-4.8251 IBALITA -0.2581
-4.8251 IBALIWALA -0.2581
-4.8251 IBANAN -0.2581
-4.8251 IBAY -0.3006
-4.8251 IBLATER -0.2581
-4.8251 IBOG -0.2581
-4.8251 IBUKA -0.2962
-4.8251 IBUNGAT -0.3001
-4.8251 IBUTANG -0.2581
-4.8251 IBUTYAG -0.2581
-4.5241 ICALINA -0.2989
-4.8251 IDAD -0.2581
-4.8251 IDAGAN -0.3000
-4.8251 IDAP -0.3010
-4.8251 IDAPAT -0.2581
-4.8251 IDEYA -0.2581
-4.8251 IDIYA -0.2581
-4.8251 IDMB -0.3008
-4.8251 IDOLO -0.2581
-4.8251 IDTO -0.2581
-4.8251 IDUKO -0.2581
-4.8251 IDUOL; -0.3009
-4.8251 IE -0.2581
-4.5241 IG -0.2920
-4.8251 IGABIT -0.2581
-4.8251 IGAGAW -0.2581
-4.8251 IGAHIN -0.2581
-4.8251 IGALAWOG -0.3010
-4.8251 IGBABATIL -0.2581
-4.5241 IGBAW -0.2580
-4.8251 IGNORANTE -0.2581
-3.6790 IGO -0.2448
-4.8251 IGONG -0.3010
-4.8251 IGOS -0.2581
-4.8251 IGPALAGSIK -0.2581
-4.8251 IGSO -0.2581
-3.7837 IGSOON -0.2526
-4.3480 IGSOONG -0.3008
-4.8251 IGSU -0.2581
-4.8251 IGSUON -0.2967
-4.8251 IGTAGSA -0.2581
-4.8251 IGTAGURHA -0.2581
-4.5241 IGUT -0.2581
-4.8251 IHALAS -0.2581
-4.3480 IHAP -0.2477
-4.0470 IHATAG -0.2474
-4.8251 IHATOD -0.2581
-4.8251 IHAWAN -0.2581
-4.5241 IHI -0.2581
-4.8251 IHIANAN -0.2581
-4.8251 IHIGOT -0.2581
-4.8251 IHON -0.3010
-4.8251 IHULAGWAY -0.2581
-4.8251 IHULOG -0.2581
-4.8251 IHUMUGSO -0.3010
-4.5241 IHUNONG -0.2564
-4.8251 IIHAW -0.2581
-4.8251 IILIS -0.2581
-4.8251 IISKWELA -0.2581
-4.8251 IK -0.2990
-3.3627 IKA -0.3008
-4.2231 IKABAEANTE -0.2580
-4.8251 IKABAYLOG -0.3010
-3.7837 IKABEINTE -0.2578
-3.7837 IKABIENTE -0.2578
-4.8251 IKABILYON -0.2581
-4.8251 IKABUBUHAY -0.2581
-4.8251 IKADASIG -0.3000
-4.8251 IKADAYEG -0.3007
-4.8251 IKADISINWEBE -0.2581
-4.8251 IKADISIOTSO -0.2581
-4.8251 IKADISISAAAS -0.2581
-4.8251 IKADISISAIS -0.2581
-4.8251 IKADISISYACTE -0.2581
-4.8251 IKADISISYETE -0.2581
-4.8251 IKADOSE -0.2581
-4.5241 IKADUHA -0.2579
-4.8251 IKADUHANG -0.3010
-4.8251 IKAHATAG -0.3003
-4.8251 IKAHATOD -0.3000
-4.8251 IKAKINSE -0.2581
-4.8251 IKALIMA -0.2581
-4.8251 IKANAPULO -0.2581
-4.8251 IKANUBENTA -0.2581
-4.8251 IKAONSE -0.2581
-4.8251 IKAPAMAHAW -0.3008
-4.8251 IKAPANGHIMAKAK -0.2967
-4.8251 IKAPASAKA -0.3010
-4.8251 IKAPASIDUNGOG -0.3000
-4.8251 IKAPILA -0.2581
-4.5241 IKAPITO -0.2581
-4.8251 IKASAISENTA -0.2581
-4.8251 IKASITENTA -0.2581
-4.8251 IKASIYAM -0.2581
-4.8251 IKATAMBAG -0.2581
-4.1261 IKATATLUMPUT -0.3010
-4.8251 IKATIMO -0.3006
-4.8251 IKATOLONG -0.3010
-4.8251 IKATORSE -0.2581
-4.8251 IKATRACSE -0.2581
-4.5241 IKATRESE -0.2581
-4.5241 IKATULO -0.2533
-4.8251 IKATULONG -0.3010
-4.8251 IKATUNOL -0.2920
-4.8251 IKAUNUM -0.2581
-4.8251 IKAUPAT -0.2581
-3.5241 IKAW -0.2464
-4.8251 IKAWALO -0.2581
-4.8251 IKAYUHOT -0.3010
-4.8251 IKIHA -0.2962
-4.8251 IKOG -0.3007
-4.8251 IKSAKTO -0.3005
-4.8251 IKUHA -0.3000
-4.8251 IKUNSULTA -0.2581
-4.8251 IKUWENTO -0.2920
-4.8251 IKYAS -0.2581
-3.9220 ILA -0.2477
-4.8251 ILAGA -0.2581
-4.8251 ILAHA -0.2581
-4.8251 ILAILA -0.2581
-4.8251 ILAKIP -0.2581
-4.8251 ILALUM -0.2581
-3.1175 ILANG -0.2933
-3.5947 ILARAWAN -0.2961
-4.8251 ILAWOM -0.2581
-4.8251 ILEGAL -0.2581
-4.8251 ILHANAN -0.2581
-4.8251 ILHI -0.2581
-4.8251 ILIGAL -0.2581
-4.8251 ILIMNON -0.2581
-4.8251 ILIS -0.2581
-4.8251 ILISTA -0.2581
-4.8251 ILIW -0.2581
-4.8251 ILL -0.2581
-4.8251 ILLEGAL -0.2581
-4.8251 ILO -0.2967
-4.8251 ILOG -0.3009
-4.5241 ILOILO -0.3009
-4.8251 ILOK -0.2581
-4.8251 ILONG -0.2581
-4.8251 ILUBONG -0.2581
-4.5241 ILUK -0.2581
-4.8251 ILUSTRAR -0.2581
-4.8251 IMAGE -0.2920
-4.8251 IMAGINATION -0.2581
-4.8251 IMBENTO -0.2581
-4.5241 IMBESTIGA -0.2581
-4.5241 IMBESTIGADOR -0.2481
-4.8251 IMBESTIGAHON -0.2920
-4.8251 IMBESTIGARON -0.2962
-3.7837 IMBESTIGASYON -0.2365
-4.5241 IMBIS -0.2481
-4.8251 IMBITAR -0.2581
-4.8251 IMBITARA -0.2581
-4.3480 IMBITARON -0.2558
-4.8251 IMBITASYON -0.2581
-4.8251 IMBORNAL -0.2581
-4.8251 IMIGRANTE -0.2581
-4.5241 IMNA -0.3009
-4.8251 IMNANAN -0.2967
-4.8251 IMNON -0.2581
-4.8251 IMNONON -0.2581
-4.3480 IMO -0.2567
-4.0470 IMOK -0.2521
-3.0327 IMONG -0.2545
-4.8251 IMPAK -0.3008
-4.8251 IMPATSO -0.2581
-4.8251 IMPEKSYON -0.2581
-4.8251 IMPERNO -0.2581
-4.8251 IMPINYUHON -0.2998
-4.8251 IMPLIKASYON -0.2581
-4.8251 IMPLUWENSYA -0.2581
-4.3480 IMPORMASYON -0.2965
-4.8251 IMPORTANTE -0.2581
-4.8251 IMPOSIBLE -0.2581
-4.8251 IMPRASTRAKTURA -0.2581
-4.8251 IMPRESIBO -0.2581
-4.8251 IMPRESYON -0.2581
-4.5241 IMPROVISED -0.3010
-4.8251 IMPUNTO -0.2581
-4.8251 IMPYERNO -0.2581
-4.5241 IN -0.3010
-4.8251 INABAGAN -0.2920
-4.8251 INADLIP -0.2989
-3.9800 INAHAN -0.2533
-4.8251 INAINA -0.2581
-4.5241 INASAL -0.2581
-4.8251 INATO -0.2581
-4.8251 INATOATO -0.3007
-4.2231 INAY -0.3005
-4.8251 INAYAGAN -0.3010
-4.8251 INAYAWAN -0.3010
-4.8251 INCORPORATED -0.2920
-3.8251 INDAY -0.2580
-4.8251 INDEKS -0.2581
-4.8251 INDEPENDENTE -0.2581
-4.5241 INDIAN -0.2581
-4.8251 INDIBIDUWAL -0.2581
-4.8251 INDIGAY -0.2581
-4.8251 INDIKASYON -0.2581
-4.8251 INDUSTRIYA -0.2581
-4.8251 INDUSTRIYAL -0.2581
-4.8251 INFLATION -0.2581
-4.8251 ING -0.2581
-4.8251 INGLE -0.2581
-3.7837 INGNA -0.2528
-4.8251 INGNAN -0.3008
-3.7112 INGON -0.2462
-4.8251 INGONG -0.3010
-4.8251 INGUSNGUS -0.2581
-4.8251 INHABITANT -0.2581
-4.8251 INHUSTISYA -0.2581
-4.8251 INI -0.3010
-4.8251 INIDORO -0.2581
-4.8251 INIG -0.3010
-4.8251 INIGKAHAPON -0.2581
-4.8251 INIGKAHUMAN -0.2581
-4.8251 INIGKAKUHA -0.2581
-4.8251 INIGSOON -0.2581
-4.8251 INILA -0.2581
-4.8251 INISTORYAHAN -0.2581
-4.3480 INISYAL -0.2533
-4.8251 INISYATIBA -0.2581
-3.8709 INIT -0.2516
-4.8251 INJECTION -0.2581
-3.9800 INOM -0.2451
-4.8251 INOSENTE -0.2581
-4.8251 INOT -0.2581
-4.8251 INQUISITION -0.3009
-4.8251 INSANE -0.2581
-4.8251 INSEDENTI -0.2962
-4.8251 INSEKTO -0.2581
-4.8251 INSENTIBO -0.2581
-4.0470 INSIDENTE -0.2578
-4.8251 INSIDENTI -0.3010
-4.8251 INSISTER -0.2581
-4.8251 INSOLENT -0.2581
-4.3480 INSP -0.3010
-4.8251 INSPEKSYON -0.2581
-4.8251 INSPEKSYONON -0.2581
-4.8251 INSTALAR -0.2581
-4.8251 INSTALLMENT -0.2581
-4.8251 INSTITUSYON -0.2581
-4.8251 INSTITUSYONAL -0.2581
-4.8251 INSTRUKSIYON -0.2581
-4.8251 INSTRUKTOR -0.2581
-4.8251 INSTRUMENTO -0.2581
-4.8251 INSULTO -0.2581
-4.3480 INTAWON -0.2580
-4.5241 INTELIHENTE -0.2533
-4.8251 INTELLECTUAL -0.2581
-4.5241 INTELLIGENCE -0.3010
-4.8251 INTERAKSYON -0.2581
-4.8251 INTERBENSYON -0.2581
-4.8251 INTERES -0.2581
-4.8251 INTERESADO -0.2581
-4.8251 INTERNAL -0.3010
-4.8251 INTERNASYONAL -0.2581
-3.6790 INTERNATIONAL -0.3008
-4.2231 INTERNET -0.2481
-4.8251 INTERO -0.2581
-4.8251 INTERPRETASYON -0.2581
-4.8251 INTERVIEW -0.2920
-4.8251 INTRIGA -0.3009
-4.8251 INTSIK -0.2581
-4.5241 INUN -0.3010
-4.5241 INUSARA -0.2557
-4.8251 INUSARANG -0.3010
-4.8251 INUTIL -0.2581
-4.8251 INVESTIGATION -0.3010
-4.8251 INYO -0.2920
-4.1261 INYONG -0.3008
-4.8251 INYUDURO -0.2581
-4.1261 IPA -0.3009
-4.8251 IPAABOT -0.2581
-4.8251 IPAADMIT -0.2581
-4.5241 IPAAGI -0.2481
-4.8251 IPABUHAT -0.3001
-4.8251 IPADALA -0.2581
-4.8251 IPADAYON -0.2581
-4.8251 IPADILIBER -0.2581
-4.8251 IPAGUYOD -0.2920
-4.8251 IPAHAYAG -0.2581
-4.8251 IPAHIANGAY -0.2581
-4.8251 IPAHIBALO -0.2581
-4.8251 IPAHIBAWO -0.2920
-4.8251 IPAHIGAYON -0.2581
-4.8251 IPAHIMUTANG -0.2920
-4.8251 IPAHUGAS -0.2581
-4.8251 IPAILAILA -0.3009
-4.8251 IPAKASAL -0.2581
-4.5241 IPAKITA -0.2578
-4.8251 IPAKITAA -0.3008
-4.8251 IPALABOG -0.2581
-4.8251 IPALIWANAG -0.2962
-4.8251 IPAMANEHO -0.2581
-4.8251 IPANGHIMAKAK -0.2581
-4.8251 IPANGUTANA -0.2581
-4.8251 IPANINGALA -0.2581
-4.8251 IPAPANGITA -0.2581
-4.8251 IPAPIK -0.3010
-4.8251 IPAREHAS -0.2581
-4.8251 IPARES -0.2581
-4.8251 IPASA -0.2581
-4.8251 IPASABOT -0.2581
-4.8251 IPASABUT -0.2581
-4.5241 IPASAKA -0.3009
-4.8251 IPASAYLO -0.3007
-4.8251 IPASIUGDA -0.2581
-4.8251 IPATAGNA -0.2581
-4.5241 IPATIMBANG -0.2481
-4.5241 IPATUMAN -0.2528
-4.8251 IPATUMAR -0.2581
-4.8251 IPIT -0.2581
-4.8251 IPON -0.2581
-4.8251 IPRESENTA -0.2581
-4.8251 IPRESENTAR -0.2920
-4.8251 IPRESS -0.2581
-4.8251 IPRINT -0.2581
-4.8251 IPRISO -0.2581
-4.5241 IPU -0.2581
-4.8251 IPUNDOK -0.2581
-4.8251 IPUTOS -0.2581
-4.8251 IPUYO -0.2581
-4.8251 IRAQI -0.2581
-4.8251 IREKLAMO -0.2581
-4.8251 IREPORT -0.2581
-4.8251 IRING -0.2581
-4.8251 IRISH -0.2581
-4.3480 IRO -0.2579
-4.8251 IROG -0.2581
-4.8251 IRON -0.2581
-4.2231 IS -0.2525
-4.8251 ISA -0.2920
-4.8251 ISAGANI -0.3010
-4.5241 ISALIKWAY -0.2481
-4.8251 ISALIYAB -0.3003
-4.8251 ISAN -0.2581
-4.8251 ISAULI -0.3008
-4.8251 ISAYSAY -0.2962
-4.1261 ISDA -0.2579
-4.8251 ISEGURO -0.2581
-4.8251 ISIG -0.3010
-4.8251 ISIGKA -0.3009
-4.8251 ISIGKAKASINGKASING -0.2581
-4.5241 ISINUKSOK -0.3007
-4.5241 ISIP -0.3008
-4.1261 ISIRA -0.2962
-4.8251 ISIRI -0.3006
-4.8251 ISKA; -0.3010
-4.8251 ISKEDYUL -0.2581
-4.8251 ISKETING -0.2581
-4.8251 ISKUL -0.3010
-4.8251 ISLA -0.2581
-4.8251 ISLAMIKO -0.2581
-4.8251 ISMAGLING -0.2581
-4.8251 ISNABERA -0.2581
-4.8251 ISOG -0.2581
-4.8251 ISPONSOR -0.2581
-4.8251 ISPORT -0.3008
-4.8251 ISRAELI -0.2581
-4.8251 ISTADO -0.2920
-4.8251 ISTAKAHAN -0.2581
-4.8251 ISTASYON -0.2920
-4.8251 ISTAYL -0.2581
-4.8251 ISTORYA -0.2581
-4.8251 ISTORYAHAN -0.2581
-4.8251 ISTORYAHON -0.2581
-4.8251 ISTRIKTO -0.2581
-4.8251 ISUG -0.2920
-4.2231 ISUGILON -0.3007
-4.3480 ISUKOD -0.2581
-4.8251 ISUKSOK -0.3009
-4.8251 ISULAT -0.3007
-4.3480 ISULTI -0.2579
-4.5241 ISUMBONG -0.3006
-4.8251 ISUNGAG -0.2581
-4.8251 ISUROY -0.2581
-4.8251 ISUSUWAT -0.2581
-4.8251 ISYU -0.2581
-4.8251 ISYUHAN -0.2581
-4.8251 ITAAS -0.2581
-4.8251 ITABO -0.2581
-4.5241 ITAGO -0.2481
-4.8251 ITALYANO -0.2581
-4.8251 ITANDI -0.2581
-4.8251 ITANOM -0.2581
-4.5241 ITANUM -0.3007
-4.8251 ITIK -0.2581
-4.8251 ITIMPLA -0.2581
-4.0470 ITLOG -0.2432
-4.5241 ITOM -0.2579
-4.5241 ITOMON -0.2557
-4.8251 ITSA -0.2581
-4.8251 ITSAHAN -0.2581
-4.8251 ITUDLO -0.2581
-4.8251 ITUGOT -0.2581
-4.8251 ITUM -0.2581
-4.8251 ITUMON -0.2581
-3.5464 ITUNOL -0.2577
-4.8251 IULI -0.2581
-4.8251 IWAKSI -0.2581
-4.8251 IWASAN -0.3007
-4.8251 IWAYON -0.2920
-3.6210 IYA -0.2465
-4.5241 IYAAN -0.2581
-4.8251 IYAHAN -0.2920
-2.6608 IYANG -0.2518
-4.8251 IYO -0.3010
-3.9220 IYONG -0.3009
-4.8251 JABONERO -0.3010
-3.9800 JAMES -0.2519
-4.8251 JANICE -0.3010
-4.8251 JAYVEE -0.3010
-4.8251 JEROL -0.3010
-4.8251 JESU -0.3010
-4.8251 JET -0.2581
-4.8251 JOAVAN -0.3010
-4.8251 JOEFREY -0.3010
-4.8251 JOGGING -0.3010
-4.1261 JOHN -0.3008
-4.8251 JOURNAL -0.2581
-4.8251 JOVITO -0.3010
-3.9800 JR -0.2967
-4.8251 JUAN -0.3010
-4.8251 JUD -0.2581
-4.5241 JUDGE -0.2581
-4.5241 JULIA -0.2575
-4.8251 JULIO -0.3010
-4.8251 JUNIOR -0.2581
-4.8251 JUVENILE -0.3010
-2.3213 KA -0.2269
-4.8251 KAABAG -0.2581
-4.8251 KAABAY -0.2581
-4.1261 KAADLAWAN -0.2580
-4.5241 KAADLAWON -0.2581
-4.8251 KAADTOAN -0.2581
-4.5241 KAAGI -0.2581
-4.8251 KAALAM -0.2581
-4.8251 KAALYADO -0.2581
-4.8251 KAAMBONG -0.2581
-4.8251 KAANGHIT -0.2581
-4.8251 KAANHA -0.2581
-4.8251 KAANYAG -0.2581
-4.8251 KAAWAAW -0.2581
-4.5241 KAAWAY -0.2576
-3.2936 KAAYO -0.2319
-4.5241 KAAYO; -0.3010
-4.8251 KAAYOG -0.2995
-4.8251 KAAYOHAN -0.2581
-3.9800 KAAYONG -0.3008
-4.8251 KAAYUNAY -0.2581
-4.8251 KABAHIN -0.2581
-4.5241 KABALAKA -0.2581
-4.8251 KABALAYAN -0.2581
-4.8251 KABALO -0.2581
-4.5241 KABAN -0.2581
-4.5241 KABANAY -0.2581
-4.8251 KABANAYAN -0.2581
-4.8251 KABANDILAAN -0.2581
-4.8251 KABANGKAAGAN -0.2581
-4.8251 KABANWA -0.2581
-4.8251 KABARKADA -0.2581
-4.8251 KABARYOHAN -0.2581
-4.8251 KABASKOG -0.2581
-4.8251 KABATAAN -0.2581
-4.5241 KABATAN -0.3008
-4.8251 KABATAON -0.2581
-3.6210 KABAW -0.2418
-4.8251 KABAWA -0.3010
-4.2231 KABAYO -0.2528
-4.8251 KABILIN -0.2581
-4.8251 KABISADO -0.2581
-4.5241 KABIT -0.2581
-4.8251 KABKAB -0.2967
-4.8251 KABKAD -0.2967
-4.8251 KABLE -0.2581
-4.3480 KABO -0.2532
-4.8251 KABOG -0.2581
-4.8251 KABOMBEROHAN -0.2920
-4.8251 KABOS -0.2581
-4.8251 KABTANGAN -0.2581
-4.5241 KABUBUT -0.3008
-4.8251 KABUGHAW -0.2962
-4.3480 KABUHI -0.2581
-4.8251 KABUHIAN -0.2581
-4.8251 KABUHONG -0.2967
-4.8251 KABUKIRAN -0.3008
-4.8251 KABULAN -0.2962
-4.8251 KABULUHANAN -0.2581
-4.5241 KABUNTAGON -0.2579
-4.8251 KABUOK -0.2581
-4.5241 KABUS -0.2581
-4.8251 KABUTA -0.2581
-4.8251 KABUTANG -0.2581
-3.6490 KADA -0.2559
-4.8251 KADAAN -0.2581
-4.8251 KADAGATAN -0.2581
-4.5241 KADAGHAN -0.2576
-4.3480 KADAGHANAN -0.2481
-4.8251 KADAGHANON -0.2581
-4.8251 KADAGKOAN -0.2581
-4.5241 KADAKO -0.2481
-4.8251 KADALANAN -0.2581
-4.2231 KADALI -0.2572
-4.5241 KADAOT -0.2581
-4.8251 KADASIG -0.2581
-4.8251 KADAUGAN -0.2581
-4.5241 KADAUTAN -0.2581
-4.8251 KADAWAT -0.2581
-4.8251 KADAWO -0.3010
-4.8251 KADENA -0.2581
-4.8251 KADETE -0.2581
-4.5241 KADIYOT -0.2575
-4.3480 KADIYUT -0.2576
-4.3480 KADLAWON -0.2920
-3.8251 KADTO -0.2475
-4.8251 KADTOG -0.3007
-4.3480 KADTONG -0.3004
-4.3480 KADUGAY -0.2571
-4.8251 KADUGAYAN -0.2581
-4.8251 KADUGO -0.2581
-4.8251 KADUHA -0.2581
-4.8251 KADULA -0.2581
-4.8251 KADUNGAN -0.2581
-4.8251 KADUNGGANAN -0.2581
-4.8251 KADYOT -0.3005
-4.8251 KADYUT -0.3007
-4.5241 KAG -0.3009
-4.8251 KAGAB -0.3010
-4.3480 KAGABHION -0.2581
-4.8251 KAGABI -0.3009
-4.5241 KAGABII -0.2528
-3.5464 KAGAHAPON -0.2437
-4.8251 KAGAMITAN -0.2581
-4.2231 KAGANINA -0.2455
-4.8251 KAGAW -0.2581
-4.5241 KAGAWASAN -0.2581
-4.8251 KAGIKANAN -0.2581
-4.8251 KAGINHAWAAN -0.3009
-4.8251 KAGIW -0.2581
-4.5241 KAGUBOT -0.2581
-4.8251 KAGULKOL -0.2581
-4.5241 KAGUTOM -0.2577
-4.8251 KAGUUL -0.2581
-4.1261 KAHA -0.2576
-4.8251 KAHA; -0.3010
-4.2231 KAHADLOK -0.2456
-4.8251 KAHAMTONG -0.2581
-4.8251 KAHANGINAN -0.2581
-4.8251 KAHANGTORAN -0.2581
-4.5241 KAHAPON -0.2581
-4.8251 KAHAPONON -0.2581
-4.8251 KAHARUHAY -0.2581
-4.8251 KAHASUL -0.2581
-4.8251 KAHATAGAN -0.2581
-4.5241 KAHAW -0.2962
-4.8251 KAHAYAG -0.2581
-4.8251 KAHERA -0.2581
-4.5241 KAHIBALO -0.2579
-4.8251 KAHIBALUAN -0.3010
-4.8251 KAHIBAW -0.2581
-4.8251 KAHIBULONG -0.2998
-4.8251 KAHIBULUNGAN -0.2581
-4.8251 KAHIGALAAN -0.2581
-4.8251 KAHIGAYONAN -0.2967
-4.8251 KAHIGAYUNAN -0.2967
-4.8251 KAHIKAYAN -0.2581
-4.8251 KAHIL -0.2581
-4.8251 KAHILANATON -0.3000
-4.8251 KAHILISAN -0.2581
-4.8251 KAHIMATNGON -0.2581
-4.5241 KAHIMSOG -0.2557
-4.1261 KAHIMTANG -0.2422
-4.8251 KAHIMTANGA -0.3010
-4.8251 KAHINUMDUMAN -0.2967
-4.8251 KAHIPUSAN -0.2581
-4.8251 KAHIWIAN -0.2581
-4.8251 KAHON -0.2581
-3.9220 KAHOY -0.2506
-4.8251 KAHOYAN -0.2581
-4.8251 KAHUGPONGAN -0.2581
-4.8251 KAHUGUT -0.2581
-4.8251 KAHULOGAN -0.2581
-4.8251 KAHULUGAN -0.2581
-4.8251 KAHUMOG -0.2581
-4.5241 KAIBIGAN -0.3010
-4.8251 KAIBUG -0.2581
-4.8251 KAIGANG -0.2581
-4.8251 KAIGSOONAN -0.2581
-4.5241 KAIHION -0.2575
-3.9800 KAILA -0.2454
-4.8251 KAILHANAN -0.2581
-4.8251 KAILIBGON -0.3008
-4.8251 KAINGON -0.3008
-4.8251 KAINIT -0.2581
-4.8251 KAINOM -0.2581
-4.5241 KAIPON -0.2581
-4.8251 KAISOG -0.2581
-4.8251 KAISTORYA -0.2581
-4.3480 KAISUG -0.2581
-4.8251 KAKA -0.2581
-4.8251 KAKABOS -0.2581
-4.8251 KAKAININ -0.2920
-4.8251 KAKALIT -0.3010
-4.8251 KAKAW -0.2581
-4.8251 KAKIAT -0.2581
-4.8251 KAKITA -0.2581
-4.8251 KAKLASE -0.2581
-4.8251 KAKOMPETENSYA -0.2581
-4.8251 KAKTUS -0.2581
-4.8251 KAKUHAG -0.3010
-4.8251 KAKULANGAN -0.2581
-4.3480 KAKUSOG -0.2481
-4.8251 KAKUYAW -0.2581
-4.8251 KALAAY -0.2581
-4.8251 KALABASA -0.2581
-4.5241 KALABAW -0.2962
-4.8251 KALABERA -0.2581
-4.8251 KALABOT -0.2920
-4.8251 KALABOTAN -0.2920
-4.2231 KALAG -0.2581
-4.8251 KALAGLAGAN -0.2581
-4.8251 KALAGSIK -0.3008
-4.8251 KALAIN -0.2581
-4.8251 KALAINAN -0.2581
-4.8251 KALAKTOD -0.2581
-4.5241 KALAMBOAN -0.2581
-4.8251 KALAMBUAN -0.2581
-4.8251 KALAMI -0.2581
-4.8251 KALAMPOSAN -0.2581
-4.8251 KALAN -0.3008
-4.8251 KALAPASAN -0.3008
-4.8251 KALAPUKAN -0.2581
-4.8251 KALASAG -0.2581
-4.8251 KALASANGAN -0.2581
-4.8251 KALAWASAN -0.2962
-4.8251 KALAWAT -0.2581
-4.3480 KALAYO -0.2532
-4.8251 KALBARYO -0.2581
-4.8251 KALBO -0.2581
-4.8251 KALDERETA -0.2581
-4.8251 KALDERO -0.2581
-4.8251 KALDIRO -0.2581
-4.8251 KALDO -0.2581
-4.8251 KALENDARYO -0.2581
-4.8251 KALIBANG -0.2581
-4.8251 KALIBANGA -0.2581
-4.8251 KALIBANGON -0.3005
-4.5241 KALIBO -0.2580
-4.8251 KALIBOG -0.2581
-4.8251 KALIBOGAN -0.2581
-4.8251 KALIBOTAN -0.2581
-4.8251 KALIBOTANON -0.2581
-4.5241 KALIBRE -0.2581
-4.8251 KALIBRE22 -0.2967
-4.5241 KALIBRE45 -0.2533
-4.3480 KALIBUTAN -0.2557
-4.8251 KALIDAD -0.2581
-4.8251 KALIGDONG -0.2581
-4.8251 KALIGO -0.2581
-4.5241 KALIGUAN -0.2581
-4.8251 KALIHOKAN -0.2581
-4.5241 KALIHUKAN -0.2579
-4.8251 KALIKAYAN -0.2967
-4.8251 KALIM -0.3008
-4.8251 KALIMAN -0.2581
-4.3480 KALIMOT -0.2581
-4.8251 KALIMUTAW -0.2581
-4.8251 KALINAW -0.2581
-4.8251 KALINGAW -0.2581
-4.5241 KALINGAWAN -0.2580
-4.8251 KALIPAY -0.2581
-4.8251 KALIS -0.2581
-4.8251 KALISANG -0.2581
-4.8251 KALISDANAN -0.2581
-4.8251 KALISOD -0.2581
-4.5241 KALISUD -0.2528
-3.8251 KALIT -0.2528
-4.5241 KALIWATAN -0.2481
-4.8251 KALKULO -0.2581
-4.8251 KALMALANG -0.2581
-4.8251 KALO -0.2581
-4.8251 KALORIYA -0.2581
-4.8251 KALOTA -0.2581
-4.8251 KALSADA -0.2581
-4.8251 KALSYO -0.2581
-4.8251 KALUHA -0.2581
-4.8251 KALUNGSORAN -0.2581
-4.5241 KALUOY -0.2580
-4.8251 KALUSOT -0.2581
-4.8251 KALUWASAN -0.2581
-4.8251 KALUY -0.3009
-4.8251 KALYE -0.2581
-4.8251 KAMA -0.2581
-4.8251 KAMADA -0.3010
-3.7837 KAMAGAYAN -0.2398
-4.8251 KAMAGAYAN; -0.2967
-4.5241 KAMAGULANGAN -0.2481
-4.8251 KAMAGWANGAN -0.2581
-4.8251 KAMAHAL -0.3008
-4.8251 KAMAHINUNGDANON -0.2581
-4.8251 KAMANDOAN -0.2920
-4.8251 KAMANDUAN -0.2967
-4.8251 KAMANGHORAN -0.2581
-4.3480 KAMANGHURAN -0.2481
-4.8251 KAMAO -0.2581
-4.8251 KAMAPANILYA -0.2581
-4.8251 KAMAROTE -0.2581
-4.8251 KAMASUSO -0.2581
-3.9800 KAMATAYON -0.2478
-4.8251 KAMATAYON; -0.2581
-4.8251 KAMATAYONG -0.3010
-4.5241 KAMATIS -0.2581
-4.5241 KAMAY -0.2581
-4.8251 KAMELYA -0.2581
-4.8251 KAMELYO -0.2581
-3.7112 KAMI -0.2470
-4.8251 KAMILYO -0.2581
-4.8251 KAMINGAWAN -0.2581
-4.8251 KAMINYOON -0.2581
-4.8251 KAMISA -0.2967
-4.8251 KAMISETA -0.2581
-4.8251 KAMISIN -0.2581
-4.8251 KAMISON -0.2581
-4.8251 KAMIY -0.3010
-3.6790 KAMO -0.2475
-4.8251 KAMOG -0.3010
-4.1261 KAMONG -0.2991
-4.0470 KAMOT -0.2471
-4.2231 KAMOTENG -0.3010
-4.8251 KAMOTIHAN -0.2581
-4.5241 KAMOY -0.3009
-4.8251 KAMPANA -0.2581
-4.8251 KAMPANARYO -0.2581
-4.8251 KAMPANERO -0.2581
-4.8251 KAMPANYA -0.2581
-4.8251 KAMPEYON -0.2581
-4.8251 KAMPIYON -0.2581
-4.3480 KAMPO -0.2480
-4.8251 KAMPOR -0.2581
-4.8251 KAMPYON -0.2581
-4.5241 KAMUGAW -0.2581
-4.8251 KAMULO -0.2581
-4.2231 KAMUNGGAY -0.2510
-4.5241 KAMUT -0.2581
-3.8251 KAN -0.3007
-3.8251 KANA -0.2512
-3.9800 KANAKO -0.2573
-3.9800 KANAMO -0.2480
-4.8251 KANANAN -0.2581
-4.1261 KANANG -0.3008
-4.8251 KANARYO -0.2581
-4.8251 KANASUDNON -0.2581
-4.8251 KANAUG -0.2995
-4.8251 KANDADO -0.2581
-4.8251 KANDELABRO -0.2581
-4.8251 KANDELERO -0.2581
-4.8251 KANDIDATO -0.2581
-4.8251 KANDIIS -0.2581
-4.8251 KANDIISON -0.2581
-4.8251 KANDILA -0.2581
-4.8251 KANDING -0.2581
-3.3480 KANG -0.2999
-4.8251 KANGILO -0.2962
-4.8251 KANGITNGIT -0.2581
-4.0470 KANHI -0.2578
-4.3480 KANIADTO -0.2432
-4.8251 KANIADTONG -0.2581
-4.8251 KANIATO -0.2581
-4.0470 KANILA -0.2411
-4.0470 KANIMO -0.2581
-3.8709 KANINYO -0.2581
-4.8251 KANINYONG -0.3010
-3.5947 KANIYA -0.2363
-4.5241 KANIYANG -0.3010
-4.8251 KANO -0.2581
-4.5241 KANSANG -0.3010
-4.8251 KANSELA -0.2581
-4.8251 KANSER -0.2581
-4.8251 KANSERON -0.2581
-4.8251 KANTA -0.2581
-4.8251 KANTIDAD -0.2581
-4.8251 KANTIL -0.2581
-4.8251 KANTINA -0.2581
-4.3480 KANTO -0.2481
-4.8251 KANTYAW -0.2581
-4.8251 KANUMAN -0.2581
-3.6210 KANUNAY -0.2528
-4.3480 KANUNAYNG -0.3010
-4.0470 KANUS -0.3009
-4.1261 KANUSA -0.2985
-4.8251 KANUSAKA -0.3005
-4.8251 KANYA -0.3010
-4.8251 KANYAMASO -0.2989
-4.8251 KANYANG -0.3010
-4.0470 KAON -0.2456
-4.8251 KAP -0.3010
-4.8251 KAPABILIDAD -0.2581
-4.8251 KAPAG -0.3010
-4.8251 KAPAHULAYAN -0.2581
-4.8251 KAPAIT -0.2581
-4.8251 KAPAITON -0.3010
-4.8251 KAPAKYASAN -0.2581
-4.8251 KAPALARAN -0.2581
-4.8251 KAPANAHONAN -0.2581
-4.8251 KAPANGANURAN -0.2581
-4.8251 KAPANGASAWA -0.2581
-4.8251 KAPANGHIMATUURAN -0.2581
-4.5241 KAPARANG -0.2557
-4.8251 KAPAREHA -0.2581
-4.8251 KAPARIS -0.2581
-4.8251 KAPARYENTEHAN -0.2581
-4.8251 KAPASAD -0.3008
-4.8251 KAPASIDAD -0.2581
-4.5241 KAPATAGAN -0.2579
-4.8251 KAPATAN -0.2581
-4.8251 KAPATAS -0.2581
-4.5241 KAPAYAS -0.2533
-4.2231 KAPE -0.2581
-4.8251 KAPETERA -0.2581
-4.8251 KAPETERIYA -0.2581
-4.8251 KAPI -0.2967
-4.8251 KAPIHON -0.2581
-4.8251 KAPILA -0.2581
-4.8251 KAPILDIHAN -0.2581
-4.8251 KAPILIAN -0.2581
-4.2231 KAPIN -0.2549
-4.8251 KAPINA -0.2581
-4.8251 KAPITAL -0.2581
-4.8251 KAPITALISTA -0.2581
-4.3480 KAPITAN -0.2580
-4.8251 KAPITOAN -0.2581
-4.8251 KAPITOLYO -0.2581
-4.8251 KAPITUAN -0.2581
-4.8251 KAPITULO -0.2581
-4.8251 KAPKAPAN -0.2581
-4.2231 KAPOLISAN -0.2852
-4.8251 KAPOT -0.2581
-4.5241 KAPOY -0.2581
-4.8251 KAPOYAN -0.2581
-4.8251 KAPRITSO -0.2581
-4.8251 KAPULIKI -0.2581
-3.4272 KAPULISAN -0.2378
-4.8251 KAPULOAN -0.2581
-4.8251 KAPUNAWPUNAWAN -0.2581
-4.8251 KAPUNGOT -0.2581
-4.8251 KAPUNIT -0.2581
-4.8251 KAPUSLANAN -0.2581
-4.8251 KAPUY -0.2581
-4.8251 KAPUYO -0.2967
-4.8251 KAPUYON -0.2581
-4.8251 KAPYO -0.3008
-4.8251 KARAAN -0.2581
-4.8251 KARAGARAN -0.2581
-4.5241 KARANASAN -0.2577
-4.8251 KARAT -0.2581
-4.8251 KARATOLA -0.2581
-4.8251 KARBON -0.2581
-4.8251 KARD -0.2581
-4.5241 KARE -0.2581
-4.8251 KARENDERIYA -0.2581
-4.8251 KARERA -0.2581
-4.8251 KARETON -0.2581
-4.8251 KARGA -0.2581
-4.8251 KARGADOR -0.2581
-4.8251 KARIRA -0.2581
-4.8251 KARIYUT -0.2581
-4.8251 KARLINGGA -0.2989
-4.5241 KARNE -0.2481
-4.2231 KARNEHA -0.3005
-4.8251 KARNEHAN -0.2581
-4.5241 KARNENG -0.3010
-4.8251 KARNERO -0.2581
-3.2019 KARON -0.2341
-3.8709 KARONG -0.3005
-4.8251 KAROY -0.3010
-4.8251 KARPET -0.2581
-4.5241 KARSADA -0.2576
-4.8251 KARSADAHA -0.2581
-4.5241 KARSONES -0.2581
-4.8251 KARSONSILYO -0.2581
-4.8251 KARTERO -0.2581
-4.3480 KARUN -0.2533
-4.5241 KARUNG -0.2581
-4.8251 KAS -0.2581
-4.8251 KASAB -0.3008
-4.8251 KASABA -0.2581
-4.2231 KASABOT -0.2570
-4.8251 KASABUTAN -0.2581
-4.8251 KASADPAN -0.2581
-4.8251 KASAG -0.2989
-4.8251 KASAGANAAN -0.2581
-4.5241 KASAGARAN -0.2481
-4.8251 KASAGINGAN -0.2581
-4.5241 KASAKIT -0.2481
-4.5241 KASAL -0.2581
-4.8251 KASALIGAN -0.2581
-4.8251 KASAMOK -0.2581
-4.8251 KASAMTANG -0.3010
-4.5241 KASAMTANGAN -0.3005
-4.8251 KASANAG -0.2581
-4.8251 KASANGKAPAN -0.2581
-4.8251 KASANIHAN -0.2581
-4.8251 KASARANGAN -0.2581
-4.8251 KASARING -0.2581
-4.8251 KASAULOGAN -0.2581
-4.8251 KASAYON -0.2920
-4.8251 KASAYSAYAN -0.2581
-4.8251 KASAYURAN -0.2581
-4.8251 KASI -0.2962
-4.8251 KASIGUROHAN -0.2581
-4.8251 KASIGURUAN -0.2581
-4.8251 KASIKAS -0.2920
-4.8251 KASIKBIT -0.2581
-4.8251 KASILAK -0.2581
-4.8251 KASILI -0.2581
-4.8251 KASILINGANAN -0.2581
-4.5241 KASILYAS -0.2581
-4.8251 KASINATIAN -0.2581
-4.5241 KASING -0.2581
-4.2231 KASINGKASING -0.2480
-4.8251 KASIRAHAN -0.2581
-4.8251 KASIYAHAN -0.3010
-4.8251 KASIYAMAN -0.2581
-4.8251 KASIYARNAN -0.2581
-4.8251 KASKARO -0.2581
-4.8251 KASKO -0.2581
-4.8251 KASLON -0.2581
-4.8251 KASLONON -0.2581
-3.7459 KASO -0.2418
-4.3480 KASONG -0.2581
-4.8251 KASOSYO -0.2581
-4.8251 KASOY -0.2581
-4.8251 KASUB -0.3010
-4.8251 KASUBO -0.2581
-4.8251 KASUDLAN -0.3005
-4.8251 KASUGIRAN -0.2581
-4.8251 KASUGUAN -0.2581
-4.8251 KASUHAN -0.2920
-4.8251 KASUKAON -0.3000
-4.5241 KASUKO -0.2581
-4.5241 KASUKOD -0.2967
-4.8251 KASULATAN -0.3010
-4.8251 KASULBARAN -0.2581
-4.8251 KASUNDALOHAN -0.2581
-4.8251 KASUNDALUHAN -0.2581
-4.8251 KASUOD -0.2581
-4.8251 KAT -0.3008
-4.8251 KATAAS -0.2962
-4.5241 KATABANG -0.2533
-4.8251 KATAGILUNGSOD -0.2581
-4.8251 KATAHIMIKAN -0.3010
-4.5241 KATAHOM -0.2579
-4.5241 KATAKUS -0.2581
-4.8251 KATALAGMAN -0.2581
-4.8251 KATAM -0.3010
-4.8251 KATANGIANG -0.3010
-4.3480 KATAPUSAN -0.2581
-4.8251 KATAPUSANG -0.3010
-4.8251 KATARONG -0.2581
-4.8251 KATARUNG -0.2581
-4.8251 KATAW -0.3010
-4.8251 KATAWA -0.2581
-4.3480 KATAWHAN -0.2581
-4.8251 KATAWOHON -0.2581
-4.8251 KATEGORYA -0.2581
-4.8251 KATIGULANGAN -0.2581
-4.8251 KATIGUMAN -0.2581
-4.8251 KATINGALAHAN -0.2581
-4.8251 KATITIKAN -0.2581
-4.8251 KATITIKANG -0.3010
-4.5241 KATLOAN -0.2581
-4.3480 KATOL -0.2528
-4.8251 KATOLIKO -0.2581
-4.8251 KATRE -0.2581
-4.8251 KATSILAON -0.3010
-4.8251 KATUBIGAN -0.2581
-4.8251 KATUBUYAN -0.2581
-4.8251 KATUGNAW -0.2581
-4.3480 KATUGON -0.2547
-4.8251 KATUIGAN -0.3004
-4.8251 KATULGON -0.3000
-4.8251 KATULIKO -0.3007
-4.8251 KATULO -0.2581
-4.8251 KATULOG -0.2581
-4.5241 KATULOGON -0.2564
-4.5241 KATUNGA -0.2574
-4.2231 KATUNGDANAN -0.2575
-4.8251 KATUNHAYAN -0.2920
-4.8251 KATUNOG -0.2581
-4.5241 KATUOHAN -0.2581
-4.8251 KATUUHAN -0.2581
-4.8251 KATUYOAN -0.2581
-3.5698 KAUBAN -0.2424
-4.8251 KAUBANAN -0.2581
-4.5241 KAUBANG -0.3010
-4.8251 KAUDTOHON -0.2581
-4.1261 KAUGALINGON -0.2547
-4.2231 KAUGALINGONG -0.3008
-4.8251 KAUGMAON -0.2581
-4.8251 KAULAW -0.2581
-4.8251 KAUNON -0.3010
-4.8251 KAUNURAN -0.2581
-4.8251 KAUPAW -0.2581
-4.8251 KAUSA -0.2581
-4.8251 KAUSABAN -0.2962
-4.8251 KAUSBAWAN -0.2581
-4.8251 KAWA -0.2581
-4.8251 KAWAD -0.3008
-4.8251 KAWALI -0.2581
-4.8251 KAWALWAN -0.2581
-4.8251 KAWANANGAN -0.2581
-4.8251 KAWANG -0.2581
-4.5241 KAWANI -0.2533
-4.5241 KAWATAN -0.2581
-4.3480 KAWAYAN -0.2533
-4.5241 KAWHAAN -0.2581
-4.8251 KAWIT -0.2581
-4.8251 KAWITANAN -0.2581
-4.8251 KAWKAW -0.2581
-4.8251 KAWLOHAN -0.2581
-4.8251 KAWOTA -0.2581
-3.0398 KAY -0.2352
-4.8251 KAYDA -0.2581
-4.8251 KAYLAP -0.2581
-4.8251 KAYMITO -0.2581
-4.8251 KAYO -0.3009
-4.8251 KAYONG -0.2920
-4.5241 KAYSA -0.3010
-4.8251 KEMIKAL -0.2581
-4.8251 KENDI -0.2581
-4.8251 KENNEN -0.3010
-4.8251 KERIDA -0.2581
-4.8251 KESEYO -0.2967
-4.8251 KESO -0.2581
-4.8251 KIAT -0.2581
-4.8251 KIATON -0.2581
-4.8251 KIBUT -0.2581
-4.8251 KIDNAP -0.3010
-4.8251 KIDNAPING -0.2581
-4.8251 KIDNAPON -0.2581
-4.8251 KIDNEY -0.3007
-4.8251 KIDNI -0.2581
-4.8251 KIGHANOT -0.2581
-4.8251 KIGHIGALA -0.2581
-4.8251 KIGTRATO -0.2581
-4.8251 KIHA -0.2581
-4.8251 KIKI -0.2581
-4.5241 KILAT -0.2581
-4.8251 KILAWON -0.2581
-4.8251 KILAWUNUN -0.2581
-4.8251 KILAY -0.2581
-4.2231 KILID -0.2481
-4.8251 KILIKILI -0.2581
-4.8251 KILINO -0.3010
-4.5241 KILIRAN -0.2528
-4.8251 KILO -0.2581
-4.8251 KILOMKILOM -0.2581
-4.8251 KILONG -0.3010
-4.8251 KILUMKILOM -0.2581
-4.8251 KILUMKILUM -0.2581
-4.8251 KIM -0.2581
-4.8251 KIMPANG -0.2581
-4.8251 KINAADMAN -0.2581
-3.8251 KINABUHI -0.2509
-4.8251 KINABUHING -0.3010
-4.8251 KINAHAM -0.2581
-3.7459 KINAHANGLAN -0.2447
-4.5241 KINAHANGLANG -0.3010
-4.8251 KINAHANGLANON -0.2581
-4.8251 KINAHANLAN -0.3010
-4.8251 KINAIYA -0.2581
-4.8251 KINAIYAHAN -0.2581
-4.5241 KINAIYANG -0.3010
-4.8251 KINAPINTASAN -0.2581
-4.8251 KINARAAN -0.2581
-4.5241 KINASINGKASING -0.2967
-4.5241 KINATIBUK -0.3008
-4.8251 KINATUMYAN -0.2581
-4.5241 KINHASON -0.2581
-3.0327 KINI -0.2290
-4.8251 KINIENTOS -0.2581
-4.3480 KINILAW -0.2533
-3.5464 KINING -0.2575
-4.8251 KINITAAN -0.2581
-3.2453 KINSA -0.2492
-4.8251 KINSANG -0.3010
-4.2231 KINSAY -0.3005
-4.8251 KINSE -0.2581
-4.8251 KINSENA -0.2581
-4.8251 KINUGOS -0.2581
-4.8251 KINUTUBAN -0.2581
-4.8251 KIRIWAN -0.2581
-4.8251 KISAME -0.2581
-4.8251 KISAMI -0.2581
-4.8251 KISKISI -0.2581
-4.3480 KIT -0.2578
-3.7112 KITA -0.2397
-4.5241 KITANG -0.3010
-4.8251 KITAON -0.2920
-4.8251 KITAY -0.3010
-4.8251 KITONG -0.2581
-4.8251 KIWISKIWIS -0.2581
-4.8251 KLARO -0.2581
-4.3480 KLASE -0.2581
-4.8251 KLASEHANAN -0.2581
-4.8251 KLASIKO -0.2581
-4.8251 KLASIKONG -0.3010
-4.8251 KLIMA -0.2581
-4.8251 KLINIKA -0.2581
-4.3480 KLIYENTE -0.2578
-4.8251 KM -0.2581
-2.6433 KO -0.2231
-4.8251 KOALISYON -0.2581
-4.8251 KODAK -0.2581
-4.8251 KODIGO -0.2581
-4.5241 KOG -0.3010
-4.3480 KOGON -0.2510
-4.8251 KOLEHIYO -0.2581
-4.8251 KOLEKSYON -0.2581
-4.8251 KOLEKTIBO -0.2581
-4.8251 KOLESTEROL -0.2581
-4.8251 KOLONYA -0.2581
-4.8251 KOLONYAL -0.2581
-4.8251 KOLOR -0.2581
-4.8251 KOLORI -0.2581
-4.8251 KOLUM -0.2581
-4.8251 KOLUMNISTA -0.2581
-4.8251 KOMANDER -0.2581
-4.8251 KOMBATE -0.3010
-4.8251 KOMBENSIYON -0.2581
-4.8251 KOMBIKSYON -0.2581
-4.8251 KOMBINASYON -0.2581
-4.8251 KOMBINSIHON -0.2581
-4.8251 KOMEDOR -0.2581
-4.8251 KOMEDYA -0.2581
-4.8251 KOMEDYAHAN -0.2989
-4.8251 KOMEDYANTE -0.2581
-4.8251 KOMENTARISTA -0.3008
-4.8251 KOMENTARYO -0.2581
-4.8251 KOMERSYAL -0.2581
-4.8251 KOMITE -0.2581
-4.8251 KOMON -0.2581
-4.8251 KOMPANYA -0.2581
-4.8251 KOMPAS -0.2581
-4.8251 KOMPERENSYA -0.2581
-4.8251 KOMPETISYON -0.2581
-4.8251 KOMPLETO -0.2581
-4.8251 KOMPLIKADO -0.2581
-4.8251 KOMPORTABLE -0.2581
-4.8251 KOMPOSISYON -0.2581
-4.8251 KOMPREHENSIBO -0.2967
-4.8251 KOMPRONTA -0.2581
-4.8251 KOMPRONTASYON -0.2581
-4.8251 KOMPYUTER -0.2581
-4.8251 KOMUN -0.2581
-4.8251 KOMUNIDAD -0.2581
-4.5241 KOMUNIKASYON -0.2577
-3.3627 KON -0.2535
-4.8251 KONDE -0.2581
-4.8251 KONDISYON -0.2967
-4.8251 KONDOKTOR -0.2581
-4.8251 KONDOL -0.2581
-4.8251 KONDOM -0.2581
-4.8251 KONDUKTOR -0.2581
-4.8251 KONEHO -0.2581
-4.8251 KONEKSYON -0.2581
-4.8251 KONEKTAR -0.2581
-3.9800 KONG -0.3010
-4.8251 KONGKRETO -0.2581
-4.3480 KONGRESISTA -0.3009
-4.5241 KONGRESO -0.2581
-4.8251 KONGRISISTA -0.2581
-4.8251 KONKLUSYON -0.2581
-4.8251 KONOY -0.3007
-4.2231 KONSEHAL -0.2430
-4.8251 KONSEHO -0.2581
-4.8251 KONSENSYA -0.2581
-4.8251 KONSENTRASYON -0.2581
-4.8251 KONSEPTO -0.2581
-4.8251 KONSERBATIBO -0.2581
-4.8251 KONSIDERASYON -0.2581
-4.8251 KONSONANTE -0.2581
-4.8251 KONSTITUSYONAL -0.2581
-4.8251 KONSTRAKSYON -0.2581
-4.8251 KONSULTA -0.2581
-4.8251 KONSUMIDOR -0.2581
-4.8251 KONSUMO -0.2581
-4.8251 KONSYERTO -0.2581
-4.8251 KONTAK -0.2581
-4.8251 KONTAKON -0.2581
-4.8251 KONTEKSTO -0.2581
-4.8251 KONTINENTE -0.2581
-4.8251 KONTRA -0.2581
-4.8251 KONTRATA -0.2581
-4.8251 KONTRIBUSYON -0.2581
-4.8251 KONTROBERSIYA -0.2581
-4.8251 KONTROBERSYAL -0.2581
-4.8251 KONTROL -0.2581
-4.8251 KOOPERASYON -0.2581
-4.8251 KOPA -0.2581
-4.8251 KOPYA -0.2581
-4.8251 KORAL -0.2581
-4.8251 KORD -0.2581
-4.8251 KOREK -0.2581
-4.8251 KORI -0.2581
-4.8251 KORMATAHAN -0.3007
-4.8251 KORONA -0.2581
-4.8251 KORPORASYON -0.2581
-4.8251 KORTA -0.2581
-4.0470 KORTE -0.2580
-4.8251 KOSINA -0.2581
-3.9220 KOY -0.3006
-4.8251 KREDITO -0.2581
-4.8251 KREMA -0.2581
-4.8251 KRIM -0.2581
-4.2231 KRIMEN -0.2562
-4.5241 KRIMIN -0.2581
-4.8251 KRIMINAL -0.2581
-4.8251 KRISIS -0.2581
-4.8251 KRISTIYANO -0.2581
-4.5241 KRITIKAL -0.2533
-4.8251 KRITIKO -0.2581
-4.8251 KRUDO -0.2581
-4.8251 KRUS -0.2581
-4.8251 KRUSIPIHO -0.2581
-3.6790 KTSK -0.2556
-4.8251 KUBREKANLA -0.3010
-4.8251 KUBUS -0.2581
-4.8251 KUDKOD -0.2581
-4.8251 KUGI -0.2581
-4.5241 KUGIHAN -0.2581
-4.8251 KUGITA -0.2581
-4.8251 KUGOS -0.2581
-4.3480 KUHA -0.2569
-4.5241 KUHAA -0.2577
-4.8251 KUHAAN -0.2920
-3.5698 KUHAI -0.3000
-4.5241 KUHAON -0.2577
-4.8251 KUKO -0.2581
-4.3480 KULANG -0.2427
-4.8251 KULANG; -0.3008
-4.5241 KULATA -0.2581
-4.8251 KULBA -0.2581
-4.8251 KULBAHINAM -0.2581
-4.8251 KULGIT -0.2581
-4.8251 KULI -0.2581
-4.8251 KULIHOD -0.2581
-4.8251 KULOB -0.2581
-4.2231 KULON -0.2954
-4.8251 KULOT -0.2581
-4.8251 KULTURA -0.2581
-4.8251 KULUB -0.2581
-4.8251 KUM -0.3010
-4.8251 KUMA -0.2581
-4.8251 KUMADRE -0.2581
-4.8251 KUMAGKO -0.2581
-4.5241 KUMAKAIN -0.3005
-4.8251 KUMANDER -0.2581
-4.8251 KUMINGKING -0.2581
-4.8251 KUMITA -0.2581
-4.2231 KUMO -0.2581
-4.5241 KUMOT -0.2581
-4.8251 KUMPADRE -0.2581
-4.8251 KUMPIT -0.2581
-4.5241 KUMPLETO -0.2572
-4.8251 KUMPOL -0.2581
-4.8251 KUMPRADA -0.2581
-3.8251 KUMUSTA -0.2537
-3.4449 KUN -0.2941
-3.4101 KUNG -0.2561
-4.8251 KUNGKONG -0.2581
-4.8251 KUNHOD -0.2581
-4.0470 KUNO -0.2518
-4.8251 KUNONG -0.3010
-4.8251 KUNSINSYA -0.2581
-4.8251 KUNUT -0.2581
-4.8251 KUNWARING -0.3010
-4.8251 KUPOT -0.2920
-4.8251 KUPTANAN -0.2581
-4.8251 KUPUTAN -0.2581
-4.8251 KURAT -0.2581
-4.8251 KURATA -0.2581
-4.8251 KURIKULUM -0.2581
-4.8251 KURIPOT -0.2581
-4.8251 KUROG -0.2581
-4.8251 KURSO -0.2581
-4.8251 KURTINA -0.2581
-4.3480 KURYENTE -0.2526
-4.5241 KUSGAN -0.2581
-4.3480 KUSINA -0.2481
-4.8251 KUSINERA -0.2581
-4.5241 KUSINERO -0.2581
-3.8251 KUSOG -0.2344
-4.8251 KUSOGA -0.2581
-4.8251 KUSTOMER -0.2581
-4.8251 KUSTUMBRE -0.2581
-4.8251 KUTAY -0.2581
-4.8251 KUTI -0.3010
-4.8251 KUTKUT -0.2581
-4.8251 KUTO -0.2581
-4.5241 KUTOB -0.2917
-4.8251 KUTOBSA -0.3006
-4.2231 KUTSARA -0.2581
-4.2231 KUTSILYO -0.2557
-4.8251 KUTSINTA -0.2581
-4.8251 KUTSON -0.2581
-4.8251 KUWANG -0.2581
-3.9800 KUWARTA -0.2461
-4.8251 KUWARTAHAN -0.2581
-4.3480 KUWARTO -0.2581
-4.8251 KUWARTOHA -0.3005
-4.8251 KUWARTONG -0.3009
-4.8251 KUWENTAHON -0.2581
-4.8251 KUYA -0.2581
-4.5241 KUYAMOY -0.2481
-4.8251 KUYAW -0.2581
-4.8251 KUYAWAN -0.2581
-4.8251 KUYDAWO -0.2581
-4.1261 KUYOG -0.2527
-4.8251 KWADRAKAMALIG -0.2581
-4.8251 KWALIPIKASYON -0.2581
-4.5241 KWARENTA -0.2581
-4.1261 KWARTA -0.2432
-4.8251 KWARTAHAN -0.2581
-4.8251 KWARTEL -0.2581
-4.5241 KWARTO -0.2581
-4.1261 KWATRO -0.2581
-4.8251 KWEBA -0.2581
-4.8251 KWENTA -0.2581
-4.8251 KWENTAS -0.2581
-4.8251 KYUGPOS -0.2581
-4.8251 KYUT -0.2581
-4.3480 LA -0.3010
-4.8251 LAAG -0.2581
-4.8251 LAAGAN -0.2581
-4.3480 LAB -0.2581
-4.8251 LABAD -0.2581
-4.5241 LABAHA -0.2581
-4.8251 LABAN -0.2581
-4.8251 LABANDERA -0.2581
-4.5241 LABAW -0.2581
-4.8251 LABAY -0.2581
-4.8251 LABEL -0.2581
-4.5241 LABHAN -0.2581
-4.8251 LABHONON -0.2581
-4.3480 LABI -0.2973
-4.8251 LABINA -0.3010
-3.8709 LABING -0.3006
-4.8251 LABORATORYO -0.2581
-4.8251 LABORTE -0.2920
-4.3480 LABOT -0.2481
-4.8251 LABTIK -0.2920
-4.8251 LABUD -0.2581
-4.8251 LABUT -0.2581
-4.8251 LACTAO -0.3010
-4.8251 LADLAD -0.2581
-4.5241 LAG -0.2581
-4.8251 LAGAAK -0.2581
-4.8251 LAGAAN -0.2581
-4.8251 LAGAPAK -0.3007
-4.8251 LAGAPUK -0.3009
-4.8251 LAGARAW -0.2581
-4.8251 LAGAY -0.2581
-4.8251 LAGBAS -0.2920
-4.8251 LAGDA -0.2581
-4.0470 LAGI -0.2559
-4.8251 LAGMIT -0.2581
-4.8251 LAGO -0.2581
-4.3480 LAGOT -0.2581
-4.8251 LAGPAD -0.2581
-4.8251 LAGPAK -0.3009
-4.8251 LAGSAW -0.2581
-4.8251 LAGSIK -0.2581
-4.8251 LAGTANG -0.2581
-4.8251 LAGUMBAY -0.2967
-4.8251 LAGUNA -0.2967
-4.8251 LAGUS -0.2581
-4.3480 LAGUTMON -0.2578
-4.8251 LAGWERTA -0.2581
-4.2231 LAHAT -0.3009
-4.5241 LAHI -0.2579
-3.7837 LAIN -0.2521
-4.8251 LAINA -0.2581
-3.8251 LAING -0.2979
-4.8251 LAINLAIN -0.2581
-4.8251 LAKAN -0.3010
-4.8251 LAKARIN -0.3010
-4.8251 LAKAS -0.3009
-4.5241 LAKAW -0.2578
-4.5241 LAKI -0.2581
-4.8251 LAKIN -0.3008
-4.2231 LAKIP -0.2476
-4.8251 LAKTOD -0.2581
-4.8251 LAKWATSA -0.2581
-4.8251 LALAGYANG -0.3009
-4.8251 LALAK -0.2581
-3.8709 LALAKE -0.2508
-3.7459 LALAKI -0.2407
-4.8251 LALAWA -0.2581
-4.5241 LALAWIGAN -0.2481
-4.8251 LAMAN -0.3009
-3.4827 LAMANG -0.2346
-4.8251 LAMANO -0.2581
-4.8251 LAMAS -0.2581
-4.8251 LAMBA -0.2581
-4.5241 LAMESA -0.2579
-4.2231 LAMI -0.2528
-4.8251 LAMIA -0.2581
-4.8251 LAMIAN -0.2962
-4.8251 LAMIGAS -0.2581
-4.8251 LAMISA -0.2581
-4.8251 LAMOK -0.2581
-4.8251 LAMOY -0.2581
-4.8251 LAMPARILYA -0.2581
-4.8251 LAMPASO -0.2581
-4.8251 LAMUROK -0.3010
-4.8251 LAMUYA -0.2995
-4.8251 LAMYA -0.2995
-4.8251 LANAHAN -0.2581
-4.8251 LANAW -0.2581
-4.8251 LANDAG -0.2581
-4.8251 LANDAY -0.2581
-4.8251 LANDIGANAN -0.2581
-4.8251 LANDONG -0.2581
-2.9386 LANG -0.2298
-4.5241 LANGAW -0.2564
-4.8251 LANGGA -0.2581
-4.3480 LANGGAM -0.2481
-4.3480 LANGIT -0.2511
-4.5241 LANGKAY -0.2579
-4.8251 LANGUB -0.2581
-4.5241 LANGUYANAN -0.2581
-4.3480 LANGYAW -0.2579
-4.8251 LANOG -0.2581
-4.8251 LANOS -0.2581
-4.8251 LANOT -0.2581
-4.5241 LANSANG -0.2581
-4.8251 LANSONES -0.2581
-4.8251 LANSTA -0.2581
-4.5241 LANTAY -0.2533
-4.8251 LANTSA -0.2581
-4.8251 LANTUGI -0.2581
-4.5241 LAO -0.2960
-4.8251 LAOAG -0.3009
-4.8251 LAPAD -0.2581
-4.8251 LAPALAPA -0.2581
-4.5241 LAPIS -0.2581
-4.5241 LAPOK -0.2581
-4.8251 LAPOKON -0.2581
-4.8251 LARANGAN -0.3009
-4.8251 LARAWAN -0.2581
-4.5241 LARAY -0.2920
-4.8251 LARGA -0.2581
-4.8251 LARGO -0.3010
-4.5241 LARRY -0.3002
-4.3480 LASANG -0.2580
-4.8251 LASANGON -0.2581
-4.8251 LASLASAN -0.2962
-4.8251 LASTIKO -0.2581
-4.8251 LASWA -0.2581
-4.5241 LATA -0.2581
-4.8251 LATAON -0.2581
-4.8251 LATAY -0.2920
-4.8251 LATIN -0.2581
-4.8251 LATUS -0.2920
-4.8251 LAUYA -0.2581
-4.8251 LAUYAHON -0.2581
-4.5241 LAW -0.3000
-4.8251 LAWAAN -0.2995
-4.0470 LAWAK -0.2456
-3.6790 LAWAS -0.2346
-4.8251 LAWASNON -0.2581
-4.8251 LAWGAN -0.2989
-4.5241 LAWOD -0.2533
-4.5241 LAWOM -0.2533
-4.5241 LAWUM -0.2581
-4.8251 LAYA -0.2581
-4.8251 LAYANG -0.3010
-4.8251 LAYAT -0.2581
-4.8251 LAYLAY -0.2581
-4.8251 LAYNER -0.2581
-4.1261 LAYO -0.2424
-4.8251 LCD -0.2967
-4.8251 LEBEL -0.2581
-4.8251 LECHE -0.3010
-4.8251 LEGAL -0.2581
-4.8251 LEGAZPO -0.3008
-4.8251 LEHITIMO -0.2581
-4.8251 LEKSYON -0.2581
-4.8251 LEMON -0.2581
-4.8251 LEMONADA -0.2581
-4.5241 LEMONSITO -0.2581
-4.5241 LENDING -0.3010
-4.8251 LENTE -0.2581
-4.5241 LEO -0.2481
-4.8251 LEON -0.2581
-4.8251 LEONA -0.3010
-4.8251 LEONARDO -0.2967
-4.8251 LESIONS -0.2581
-4.8251 LETRATO -0.2581
-4.5241 LETSE -0.2581
-4.8251 LEYT -0.2581
-4.8251 LIBADURA -0.2581
-4.8251 LIBAONGON -0.2581
-4.8251 LIBAT -0.2581
-4.8251 LIBERAL -0.2581
-4.8251 LIBOG -0.2581
-4.8251 LIBOGAN -0.2581
-4.8251 LIBOTLIBOT -0.2581
-4.8251 LIBRARYA -0.2581
-4.8251 LIBRE -0.2581
-4.5241 LIBRO -0.2578
-4.8251 LIBUNGAN -0.3010
-4.8251 LIDER -0.2581
-4.8251 LIE -0.3010
-4.3480 LIG -0.3008
-4.8251 LIGA -0.2581
-4.8251 LIGAN -0.3010
-4.8251 LIGAYA -0.2920
-4.8251 LIGID -0.3010
-4.8251 LIGO -0.2581
-4.8251 LIGOY -0.2581
-4.8251 LIHI -0.2581
-4.3480 LIHOK -0.2551
-4.8251 LIKAW -0.2581
-4.8251 LIKAY -0.2920
-4.5241 LIKAYAN -0.2564
-4.5241 LIKE -0.2580
-4.8251 LIKI -0.2581
-4.8251 LIKIDO -0.2581
-4.1261 LIKO -0.2481
-3.9220 LIKOD -0.2427
-4.8251 LIKUD -0.2581
-4.8251 LIKURAN -0.2581
-4.8251 LILA -0.2581
-4.8251 LILAS -0.2581
-4.8251 LILI -0.2581
-4.8251 LILIK -0.2581
-4.5241 LILO -0.2581
-4.5241 LIM -0.3010
-4.5241 LIMA -0.2581
-4.8251 LIMANG -0.2581
-4.8251 LIMAS -0.2581
-4.8251 LIMBONG -0.2581
-4.8251 LIMBONGAN -0.2581
-4.8251 LIMITADO -0.2581
-4.8251 LIMITASYON -0.2581
-4.8251 LIMOS -0.2581
-4.8251 LIMOT -0.3010
-4.8251 LIMOTAN -0.2962
-4.5241 LIMPIYO -0.2581
-4.8251 LIMPIYOHE -0.3006
-4.8251 LIMPIYOHI -0.2962
-4.8251 LIMPYO -0.2581
-4.8251 LIMPYOHI -0.2581
-4.8251 LINABOG -0.2581
-4.8251 LINAKSING -0.3010
-4.5241 LINAPWAAN -0.3009
-4.8251 LINAT -0.3010
-4.8251 LINATA -0.2581
